
network unnamedBN{
   property software aGrUM;
}

variable distance? {
   type discrete[3] {1, 0, 2};
}

variable direction? {
   type discrete[9] {0, 7, 1, 6, 5, 2, 4, 8, 3};
}

variable dist_coll_1? {
   type discrete[1] {1};
}

variable dir_coll_1? {
   type discrete[9] {3, 4, 6, 5, 1, 2, 0, 7, 8};
}

variable dist_coll_2? {
   type discrete[1] {1};
}

variable dir_coll_2? {
   type discrete[9] {3, 4, 6, 5, 1, 0, 2, 7, 8};
}

variable dist_coll_3? {
   type discrete[1] {1};
}

variable dir_coll_3? {
   type discrete[9] {3, 4, 6, 5, 2, 0, 1, 7, 8};
}

variable dist_shell? {
   type discrete[2] {0, 1};
}

variable move? {
   type discrete[3] {1, 0, -1};
}

variable turn? {
   type discrete[3] {1, 0, -1};
}

variable shell? {
   type discrete[3] {0, 1, 2};
}

variable shield? {
   type discrete[2] {0, 1};
}

probability (distance? | dir_coll_1?, direction?, dir_coll_3?) {
   (3, 0, 3) 0.707325 0.292651 2.37908e-005;
   (4, 0, 3) 0.529412 0.467492 0.00309598;
   (6, 0, 3) 0.99449 0.00275482 0.00275482;
   (5, 0, 3) 0.913043 0.085554 0.00140252;
   (1, 0, 3) 0.640377 0.359422 0.000200682;
   (2, 0, 3) 0.643525 0.349746 0.00672903;
   (0, 0, 3) 0.781747 0.218089 0.000163854;
   (7, 0, 3) 0.561644 0.424658 0.0136986;
   (8, 0, 3) 0.333333 0.333333 0.333333;
   (3, 7, 3) 0.644583 0.355364 5.28737e-005;
   (4, 7, 3) 0.497268 0.497268 0.00546448;
   (6, 7, 3) 0.831418 0.167305 0.00127714;
   (5, 7, 3) 0.268765 0.728814 0.00242131;
   (1, 7, 3) 0.6555 0.344204 0.000296472;
   (2, 7, 3) 0.570131 0.429704 0.000165207;
   (0, 7, 3) 0.665366 0.334465 0.000169693;
   (7, 7, 3) 0.809524 0.174603 0.015873;
   (8, 7, 3) 0.333333 0.333333 0.333333;
   (3, 1, 3) 0.736297 0.263603 0.000100573;
   (4, 1, 3) 0.980583 0.00970874 0.00970874;
   (6, 1, 3) 0.98293 0.0156472 0.00142248;
   (5, 1, 3) 0.9819 0.0165913 0.0015083;
   (1, 1, 3) 0.767977 0.231064 0.000958773;
   (2, 1, 3) 0.847649 0.151963 0.000388651;
   (0, 1, 3) 0.937918 0.0614729 0.000608643;
   (7, 1, 3) 0.939394 0.030303 0.030303;
   (8, 1, 3) 0.333333 0.333333 0.333333;
   (3, 6, 3) 0.612525 0.379626 0.00784956;
   (4, 6, 3) 0.883495 0.106796 0.00970874;
   (6, 6, 3) 0.986928 0.00653595 0.00653595;
   (5, 6, 3) 0.533569 0.462898 0.00353357;
   (1, 6, 3) 0.660915 0.338335 0.000750188;
   (2, 6, 3) 0.716029 0.283417 0.000554631;
   (0, 6, 3) 0.588071 0.410997 0.000931966;
   (7, 6, 3) 0.989637 0.00518135 0.00518135;
   (8, 6, 3) 0.333333 0.333333 0.333333;
   (3, 5, 3) 0.600797 0.251931 0.147271;
   (4, 5, 3) 0.628319 0.362832 0.00884956;
   (6, 5, 3) 0.846154 0.0769231 0.0769231;
   (5, 5, 3) 0.849765 0.14554 0.00469484;
   (1, 5, 3) 0.826638 0.171247 0.00211416;
   (2, 5, 3) 0.886672 0.11253 0.000798085;
   (0, 5, 3) 0.563218 0.435504 0.00127714;
   (7, 5, 3) 0.939394 0.030303 0.030303;
   (8, 5, 3) 0.333333 0.333333 0.333333;
   (3, 2, 3) 0.474965 0.524835 0.000199481;
   (4, 2, 3) 0.986928 0.00653595 0.00653595;
   (6, 2, 3) 0.333333 0.333333 0.333333;
   (5, 2, 3) 0.986928 0.00653595 0.00653595;
   (1, 2, 3) 0.913043 0.0858961 0.00106045;
   (2, 2, 3) 0.742204 0.257103 0.000693001;
   (0, 2, 3) 0.687031 0.311897 0.00107181;
   (7, 2, 3) 0.978495 0.0107527 0.0107527;
   (8, 2, 3) 0.333333 0.333333 0.333333;
   (3, 4, 3) 0.449433 0.424255 0.126311;
   (4, 4, 3) 0.994334 0.00283286 0.00283286;
   (6, 4, 3) 0.0434783 0.913043 0.0434783;
   (5, 4, 3) 0.458647 0.533835 0.0075188;
   (1, 4, 3) 0.658537 0.0894309 0.252033;
   (2, 4, 3) 0.651116 0.123732 0.225152;
   (0, 4, 3) 0.355408 0.642384 0.00220751;
   (7, 4, 3) 0.333333 0.333333 0.333333;
   (8, 4, 3) 0.333333 0.333333 0.333333;
   (3, 8, 3) 0.333333 0.333333 0.333333;
   (4, 8, 3) 0.333333 0.333333 0.333333;
   (6, 8, 3) 0.333333 0.333333 0.333333;
   (5, 8, 3) 0.333333 0.333333 0.333333;
   (1, 8, 3) 0.333333 0.333333 0.333333;
   (2, 8, 3) 0.333333 0.333333 0.333333;
   (0, 8, 3) 0.333333 0.333333 0.333333;
   (7, 8, 3) 0.333333 0.333333 0.333333;
   (8, 8, 3) 0.333333 0.333333 0.333333;
   (3, 3, 3) 0.626566 0.373143 0.00029129;
   (4, 3, 3) 0.882618 0.115124 0.00225734;
   (6, 3, 3) 0.333333 0.333333 0.333333;
   (5, 3, 3) 0.584906 0.396226 0.0188679;
   (1, 3, 3) 0.762376 0.234323 0.00330033;
   (2, 3, 3) 0.663366 0.333333 0.00330033;
   (0, 3, 3) 0.435583 0.558282 0.00613497;
   (7, 3, 3) 0.333333 0.333333 0.333333;
   (8, 3, 3) 0.333333 0.333333 0.333333;
   (3, 0, 4) 0.791822 0.207647 0.000531067;
   (4, 0, 4) 0.772534 0.22744 2.6786e-005;
   (6, 0, 4) 0.701363 0.29844 0.000197511;
   (5, 0, 4) 0.760203 0.239615 0.000181389;
   (1, 0, 4) 0.930983 0.0682671 0.000750188;
   (2, 0, 4) 0.473945 0.523573 0.00248139;
   (0, 0, 4) 0.836797 0.162696 0.000506842;
   (7, 0, 4) 0.430778 0.568671 0.000551572;
   (8, 0, 4) 0.333333 0.333333 0.333333;
   (3, 7, 4) 0.591636 0.407134 0.00123001;
   (4, 7, 4) 0.835371 0.164608 2.10469e-005;
   (6, 7, 4) 0.832328 0.167549 0.000123107;
   (5, 7, 4) 0.764052 0.235827 0.000120875;
   (1, 7, 4) 0.641102 0.358153 0.000744602;
   (2, 7, 4) 0.488372 0.488372 0.0232558;
   (0, 7, 4) 0.67573 0.323263 0.00100705;
   (7, 7, 4) 0.825892 0.173921 0.000186811;
   (8, 7, 4) 0.333333 0.333333 0.333333;
   (3, 1, 4) 0.61603 0.383038 0.000931966;
   (4, 1, 4) 0.683418 0.316475 0.000107608;
   (6, 1, 4) 0.612597 0.386809 0.000594177;
   (5, 1, 4) 0.819267 0.179881 0.000852515;
   (1, 1, 4) 0.806356 0.192905 0.000739098;
   (2, 1, 4) 0.901561 0.0972389 0.00120048;
   (0, 1, 4) 0.479924 0.518164 0.00191205;
   (7, 1, 4) 0.810421 0.188952 0.000627746;
   (8, 1, 4) 0.333333 0.333333 0.333333;
   (3, 6, 4) 0.843416 0.155397 0.00118624;
   (4, 6, 4) 0.741749 0.254469 0.00378254;
   (6, 6, 4) 0.807866 0.191786 0.000348068;
   (5, 6, 4) 0.72035 0.279234 0.000416147;
   (1, 6, 4) 0.678756 0.316062 0.00518135;
   (2, 6, 4) 0.497942 0.497942 0.00411523;
   (0, 6, 4) 0.853821 0.145072 0.00110742;
   (7, 6, 4) 0.68949 0.310074 0.00043611;
   (8, 6, 4) 0.333333 0.333333 0.333333;
   (3, 5, 4) 0.706294 0.286713 0.00699301;
   (4, 5, 4) 0.696763 0.25194 0.0512966;
   (6, 5, 4) 0.469388 0.527697 0.00291545;
   (5, 5, 4) 0.614089 0.38438 0.00153139;
   (1, 5, 4) 0.965015 0.00291545 0.03207;
   (2, 5, 4) 0.992933 0.00353357 0.00353357;
   (0, 5, 4) 0.996176 0.00191205 0.00191205;
   (7, 5, 4) 0.286119 0.711048 0.00283286;
   (8, 5, 4) 0.333333 0.333333 0.333333;
   (3, 2, 4) 0.817527 0.181273 0.00120048;
   (4, 2, 4) 0.58831 0.404294 0.00739672;
   (6, 2, 4) 0.787375 0.211517 0.00110742;
   (5, 2, 4) 0.820336 0.178677 0.000987167;
   (1, 2, 4) 0.765903 0.231552 0.00254453;
   (2, 2, 4) 0.994638 0.00268097 0.00268097;
   (0, 2, 4) 0.984962 0.0075188 0.0075188;
   (7, 2, 4) 0.393393 0.603604 0.003003;
   (8, 2, 4) 0.333333 0.333333 0.333333;
   (3, 4, 4) 0.890339 0.10705 0.00261097;
   (4, 4, 4) 0.94796 0.0485063 0.00353357;
   (6, 4, 4) 0.988439 0.00578035 0.00578035;
   (5, 4, 4) 0.83659 0.143872 0.0195382;
   (1, 4, 4) 0.989637 0.00518135 0.00518135;
   (2, 4, 4) 0.150685 0.150685 0.69863;
   (0, 4, 4) 0.993174 0.00341297 0.00341297;
   (7, 4, 4) 0.943662 0.0516432 0.00469484;
   (8, 4, 4) 0.333333 0.333333 0.333333;
   (3, 8, 4) 0.333333 0.333333 0.333333;
   (4, 8, 4) 0.913043 0.0434783 0.0434783;
   (6, 8, 4) 0.333333 0.333333 0.333333;
   (5, 8, 4) 0.846154 0.0769231 0.0769231;
   (1, 8, 4) 0.333333 0.333333 0.333333;
   (2, 8, 4) 0.333333 0.333333 0.333333;
   (0, 8, 4) 0.333333 0.333333 0.333333;
   (7, 8, 4) 0.333333 0.333333 0.333333;
   (8, 8, 4) 0.333333 0.333333 0.333333;
   (3, 3, 4) 0.278689 0.715847 0.00546448;
   (4, 3, 4) 0.883969 0.11585 0.000180734;
   (6, 3, 4) 0.493976 0.493976 0.0120482;
   (5, 3, 4) 0.626062 0.371105 0.00283286;
   (1, 3, 4) 0.913043 0.0434783 0.0434783;
   (2, 3, 4) 0.939394 0.030303 0.030303;
   (0, 3, 4) 0.913043 0.0434783 0.0434783;
   (7, 3, 4) 0.499222 0.499222 0.00155521;
   (8, 3, 4) 0.333333 0.333333 0.333333;
   (3, 0, 6) 0.13099 0.865815 0.00319489;
   (4, 0, 6) 0.756317 0.243496 0.000187161;
   (6, 0, 6) 0.772107 0.222012 0.00588069;
   (5, 0, 6) 0.830301 0.169634 6.52188e-005;
   (1, 0, 6) 0.693856 0.305785 0.000359324;
   (2, 0, 6) 0.242639 0.756988 0.000372717;
   (0, 0, 6) 0.492286 0.506311 0.00140252;
   (7, 0, 6) 0.569955 0.429633 0.000412712;
   (8, 0, 6) 0.333333 0.333333 0.333333;
   (3, 7, 6) 0.422053 0.574144 0.00380228;
   (4, 7, 6) 0.764437 0.23542 0.000142592;
   (6, 7, 6) 0.789694 0.210289 1.71371e-005;
   (5, 7, 6) 0.824545 0.175388 6.76911e-005;
   (1, 7, 6) 0.798294 0.201204 0.000501756;
   (2, 7, 6) 0.589251 0.410109 0.000639795;
   (0, 7, 6) 0.636364 0.360882 0.00275482;
   (7, 7, 6) 0.734795 0.265085 0.000120438;
   (8, 7, 6) 0.333333 0.333333 0.333333;
   (3, 1, 6) 0.846154 0.0769231 0.0769231;
   (4, 1, 6) 0.833605 0.164763 0.00163132;
   (6, 1, 6) 0.782305 0.212088 0.00560645;
   (5, 1, 6) 0.721829 0.277527 0.000643915;
   (1, 1, 6) 0.906147 0.0931923 0.000660939;
   (2, 1, 6) 0.896976 0.101904 0.00111982;
   (0, 1, 6) 0.992933 0.00353357 0.00353357;
   (7, 1, 6) 0.516862 0.48245 0.000688231;
   (8, 1, 6) 0.333333 0.333333 0.333333;
   (3, 6, 6) 0.968254 0.015873 0.015873;
   (4, 6, 6) 0.681225 0.312535 0.00623936;
   (6, 6, 6) 0.722634 0.277283 8.32432e-005;
   (5, 6, 6) 0.784835 0.201555 0.0136099;
   (1, 6, 6) 0.663664 0.333333 0.003003;
   (2, 6, 6) 0.723724 0.273273 0.003003;
   (0, 6, 6) 0.0472103 0.948498 0.00429185;
   (7, 6, 6) 0.721509 0.278077 0.000414422;
   (8, 6, 6) 0.333333 0.333333 0.333333;
   (3, 5, 6) 0.60424 0.392226 0.00353357;
   (4, 5, 6) 0.371105 0.626062 0.00283286;
   (6, 5, 6) 0.663385 0.312279 0.0243359;
   (5, 5, 6) 0.763509 0.235855 0.000635728;
   (1, 5, 6) 0.615222 0.382664 0.00211416;
   (2, 5, 6) 0.903904 0.0930931 0.003003;
   (0, 5, 6) 0.492063 0.492063 0.015873;
   (7, 5, 6) 0.460411 0.519062 0.0205279;
   (8, 5, 6) 0.333333 0.333333 0.333333;
   (3, 2, 6) 0.984962 0.0075188 0.0075188;
   (4, 2, 6) 0.846154 0.15197 0.00187617;
   (6, 2, 6) 0.642799 0.340594 0.0166077;
   (5, 2, 6) 0.863816 0.135392 0.000791766;
   (1, 2, 6) 0.772242 0.226572 0.00118624;
   (2, 2, 6) 0.764259 0.231939 0.00380228;
   (0, 2, 6) 0.584906 0.396226 0.0188679;
   (7, 2, 6) 0.954451 0.0434783 0.00207039;
   (8, 2, 6) 0.333333 0.333333 0.333333;
   (3, 4, 6) 0.846154 0.0769231 0.0769231;
   (4, 4, 6) 0.772894 0.223443 0.003663;
   (6, 4, 6) 0.437625 0.473726 0.0886482;
   (5, 4, 6) 0.529412 0.0718954 0.398693;
   (1, 4, 6) 0.174603 0.809524 0.015873;
   (2, 4, 6) 0.628319 0.362832 0.00884956;
   (0, 4, 6) 0.333333 0.333333 0.333333;
   (7, 4, 6) 0.520518 0.434125 0.0453564;
   (8, 4, 6) 0.333333 0.333333 0.333333;
   (3, 8, 6) 0.333333 0.333333 0.333333;
   (4, 8, 6) 0.636364 0.333333 0.030303;
   (6, 8, 6) 0.953488 0.0232558 0.0232558;
   (5, 8, 6) 0.0769231 0.846154 0.0769231;
   (1, 8, 6) 0.846154 0.0769231 0.0769231;
   (2, 8, 6) 0.333333 0.333333 0.333333;
   (0, 8, 6) 0.333333 0.333333 0.333333;
   (7, 8, 6) 0.478261 0.478261 0.0434783;
   (8, 8, 6) 0.333333 0.333333 0.333333;
   (3, 3, 6) 0.939394 0.030303 0.030303;
   (4, 3, 6) 0.868313 0.127572 0.00411523;
   (6, 3, 6) 0.480541 0.519183 0.000276014;
   (5, 3, 6) 0.343653 0.653251 0.00309598;
   (1, 3, 6) 0.452915 0.542601 0.00448431;
   (2, 3, 6) 0.00653595 0.986928 0.00653595;
   (0, 3, 6) 0.333333 0.333333 0.333333;
   (7, 3, 6) 0.989071 0.00546448 0.00546448;
   (8, 3, 6) 0.333333 0.333333 0.333333;
   (3, 0, 5) 0.793103 0.206163 0.000733676;
   (4, 0, 5) 0.755513 0.244374 0.000113084;
   (6, 0, 5) 0.700228 0.299518 0.000253614;
   (5, 0, 5) 0.812867 0.187109 2.38022e-005;
   (1, 0, 5) 0.569554 0.429571 0.000874891;
   (2, 0, 5) 0.759982 0.23979 0.000228154;
   (0, 0, 5) 0.715442 0.283884 0.000674309;
   (7, 0, 5) 0.701626 0.297813 0.000560853;
   (8, 0, 5) 0.333333 0.333333 0.333333;
   (3, 7, 5) 0.574846 0.42447 0.000683527;
   (4, 7, 5) 0.771272 0.228609 0.000119005;
   (6, 7, 5) 0.766816 0.233039 0.000144655;
   (5, 7, 5) 0.732989 0.26699 2.08407e-005;
   (1, 7, 5) 0.833605 0.164763 0.00163132;
   (2, 7, 5) 0.714911 0.284725 0.000364564;
   (0, 7, 5) 0.805497 0.192389 0.00211416;
   (7, 7, 5) 0.675633 0.32417 0.000196348;
   (8, 7, 5) 0.333333 0.333333 0.333333;
   (3, 1, 5) 0.893805 0.0973451 0.00884956;
   (4, 1, 5) 0.675214 0.31534 0.00944669;
   (6, 1, 5) 0.569117 0.430421 0.000462321;
   (5, 1, 5) 0.78149 0.218421 8.83939e-005;
   (1, 1, 5) 0.904831 0.0948057 0.00036324;
   (2, 1, 5) 0.775876 0.223848 0.000276014;
   (0, 1, 5) 0.788122 0.210273 0.00160514;
   (7, 1, 5) 0.531493 0.467799 0.000707714;
   (8, 1, 5) 0.333333 0.333333 0.333333;
   (3, 6, 5) 0.609023 0.383459 0.0075188;
   (4, 6, 5) 0.710656 0.265954 0.0233901;
   (6, 6, 5) 0.836101 0.163626 0.000272257;
   (5, 6, 5) 0.714763 0.285173 6.42137e-005;
   (1, 6, 5) 0.997599 0.00120048 0.00120048;
   (2, 6, 5) 0.349012 0.650047 0.000940734;
   (0, 6, 5) 0.447506 0.55175 0.000744602;
   (7, 6, 5) 0.839424 0.160062 0.000514668;
   (8, 6, 5) 0.0769231 0.846154 0.0769231;
   (3, 5, 5) 0.986014 0.00699301 0.00699301;
   (4, 5, 5) 0.689567 0.307888 0.00254453;
   (6, 5, 5) 0.902439 0.0971008 0.000460193;
   (5, 5, 5) 0.789042 0.21078 0.000178476;
   (1, 5, 5) 0.809524 0.186813 0.003663;
   (2, 5, 5) 0.846154 0.15197 0.00187617;
   (0, 5, 5) 0.930886 0.0669546 0.00215983;
   (7, 5, 5) 0.672922 0.243968 0.0831099;
   (8, 5, 5) 0.333333 0.333333 0.333333;
   (3, 2, 5) 0.982301 0.00884956 0.00884956;
   (4, 2, 5) 0.851186 0.123467 0.0253475;
   (6, 2, 5) 0.950617 0.048433 0.000949668;
   (5, 2, 5) 0.7057 0.289237 0.00506288;
   (1, 2, 5) 0.895487 0.103721 0.000791766;
   (2, 2, 5) 0.861386 0.137852 0.000761615;
   (0, 2, 5) 0.615222 0.382664 0.00211416;
   (7, 2, 5) 0.586098 0.412322 0.00157978;
   (8, 2, 5) 0.333333 0.333333 0.333333;
   (3, 4, 5) 0.374486 0.292181 0.333333;
   (4, 4, 5) 0.553719 0.278237 0.168044;
   (6, 4, 5) 0.61516 0.265306 0.119534;
   (5, 4, 5) 0.774669 0.152636 0.0726955;
   (1, 4, 5) 0.98374 0.00813008 0.00813008;
   (2, 4, 5) 0.703284 0.284258 0.0124575;
   (0, 4, 5) 0.451327 0.539823 0.00884956;
   (7, 4, 5) 0.435115 0.562341 0.00254453;
   (8, 4, 5) 0.333333 0.333333 0.333333;
   (3, 8, 5) 0.333333 0.333333 0.333333;
   (4, 8, 5) 0.333333 0.333333 0.333333;
   (6, 8, 5) 0.333333 0.333333 0.333333;
   (5, 8, 5) 0.913043 0.0434783 0.0434783;
   (1, 8, 5) 0.333333 0.333333 0.333333;
   (2, 8, 5) 0.333333 0.333333 0.333333;
   (0, 8, 5) 0.333333 0.333333 0.333333;
   (7, 8, 5) 0.333333 0.333333 0.333333;
   (8, 8, 5) 0.333333 0.333333 0.333333;
   (3, 3, 5) 0.993399 0.00330033 0.00330033;
   (4, 3, 5) 0.968668 0.0287206 0.00261097;
   (6, 3, 5) 0.92936 0.0684327 0.00220751;
   (5, 3, 5) 0.638235 0.361537 0.000228676;
   (1, 3, 5) 0.902439 0.0894309 0.00813008;
   (2, 3, 5) 0.70892 0.286385 0.00469484;
   (0, 3, 5) 0.989637 0.00518135 0.00518135;
   (7, 3, 5) 0.108808 0.88601 0.00518135;
   (8, 3, 5) 0.333333 0.333333 0.333333;
   (3, 0, 2) 0.683013 0.312642 0.00434513;
   (4, 0, 2) 0.829787 0.167849 0.00236407;
   (6, 0, 2) 0.705921 0.293413 0.000665336;
   (5, 0, 2) 0.44377 0.555763 0.000466636;
   (1, 0, 2) 0.608658 0.390275 0.00106765;
   (2, 0, 2) 0.744077 0.25256 0.0033635;
   (0, 0, 2) 0.83754 0.162293 0.00016714;
   (7, 0, 2) 0.950995 0.0474732 0.00153139;
   (8, 0, 2) 0.333333 0.333333 0.333333;
   (3, 7, 2) 0.727697 0.272029 0.000274499;
   (4, 7, 2) 0.00395257 0.992095 0.00395257;
   (6, 7, 2) 0.561888 0.437222 0.000890472;
   (5, 7, 2) 0.875433 0.124439 0.000128156;
   (1, 7, 2) 0.672341 0.327438 0.000221092;
   (2, 7, 2) 0.686686 0.313277 3.64657e-005;
   (0, 7, 2) 0.465796 0.53392 0.000283849;
   (7, 7, 2) 0.944223 0.0544489 0.00132802;
   (8, 7, 2) 0.333333 0.333333 0.333333;
   (3, 1, 2) 0.758865 0.235134 0.00600109;
   (4, 1, 2) 0.994778 0.00261097 0.00261097;
   (6, 1, 2) 0.788396 0.208191 0.00341297;
   (5, 1, 2) 0.90491 0.0943102 0.000779423;
   (1, 1, 2) 0.791404 0.208322 0.000273748;
   (2, 1, 2) 0.821523 0.177886 0.000590985;
   (0, 1, 2) 0.638851 0.351573 0.00957592;
   (7, 1, 2) 0.994334 0.00283286 0.00283286;
   (8, 1, 2) 0.333333 0.333333 0.333333;
   (3, 6, 2) 0.73876 0.260767 0.000473261;
   (4, 6, 2) 0.333333 0.658537 0.00813008;
   (6, 6, 2) 0.994911 0.00254453 0.00254453;
   (5, 6, 2) 0.828208 0.170732 0.00106045;
   (1, 6, 2) 0.690333 0.309266 0.000401123;
   (2, 6, 2) 0.682174 0.28227 0.0355559;
   (0, 6, 2) 0.848725 0.150857 0.000417886;
   (7, 6, 2) 0.769968 0.226837 0.00319489;
   (8, 6, 2) 0.333333 0.333333 0.333333;
   (3, 5, 2) 0.591906 0.406408 0.00168634;
   (4, 5, 2) 0.00395257 0.992095 0.00395257;
   (6, 5, 2) 0.594771 0.398693 0.00653595;
   (5, 5, 2) 0.585313 0.412527 0.00215983;
   (1, 5, 2) 0.653137 0.345633 0.00123001;
   (2, 5, 2) 0.854929 0.136387 0.00868381;
   (0, 5, 2) 0.605684 0.39254 0.0017762;
   (7, 5, 2) 0.521127 0.474178 0.00469484;
   (8, 5, 2) 0.333333 0.333333 0.333333;
   (3, 2, 2) 0.742406 0.256379 0.00121507;
   (4, 2, 2) 0.614458 0.373494 0.0120482;
   (6, 2, 2) 0.380282 0.615023 0.00469484;
   (5, 2, 2) 0.374233 0.619632 0.00613497;
   (1, 2, 2) 0.879375 0.119881 0.000744602;
   (2, 2, 2) 0.842048 0.157831 0.000121315;
   (0, 2, 2) 0.886156 0.113141 0.000702741;
   (7, 2, 2) 0.982301 0.00884956 0.00884956;
   (8, 2, 2) 0.333333 0.333333 0.333333;
   (3, 4, 2) 0.497758 0.497758 0.00448431;
   (4, 4, 2) 0.00448431 0.991031 0.00448431;
   (6, 4, 2) 0.373494 0.614458 0.0120482;
   (5, 4, 2) 0.690987 0.304721 0.00429185;
   (1, 4, 2) 0.917852 0.0805687 0.00157978;
   (2, 4, 2) 0.707341 0.211392 0.0812669;
   (0, 4, 2) 0.524804 0.472585 0.00261097;
   (7, 4, 2) 0.972603 0.0136986 0.0136986;
   (8, 4, 2) 0.333333 0.333333 0.333333;
   (3, 8, 2) 0.333333 0.333333 0.333333;
   (4, 8, 2) 0.333333 0.333333 0.333333;
   (6, 8, 2) 0.333333 0.333333 0.333333;
   (5, 8, 2) 0.993808 0.00309598 0.00309598;
   (1, 8, 2) 0.333333 0.333333 0.333333;
   (2, 8, 2) 0.913043 0.0434783 0.0434783;
   (0, 8, 2) 0.333333 0.333333 0.333333;
   (7, 8, 2) 0.333333 0.333333 0.333333;
   (8, 8, 2) 0.333333 0.333333 0.333333;
   (3, 3, 2) 0.33996 0.658052 0.00198807;
   (4, 3, 2) 0.939394 0.030303 0.030303;
   (6, 3, 2) 0.614458 0.373494 0.0120482;
   (5, 3, 2) 0.773585 0.207547 0.0188679;
   (1, 3, 2) 0.759909 0.238958 0.0011325;
   (2, 3, 2) 0.676831 0.322947 0.000222568;
   (0, 3, 2) 0.752759 0.245033 0.00220751;
   (7, 3, 2) 0.333333 0.333333 0.333333;
   (8, 3, 2) 0.333333 0.333333 0.333333;
   (3, 0, 0) 0.684512 0.315202 0.000286287;
   (4, 0, 0) 0.77921 0.220521 0.000268601;
   (6, 0, 0) 0.893091 0.106404 0.000504286;
   (5, 0, 0) 0.528284 0.470757 0.000958773;
   (1, 0, 0) 0.762312 0.197158 0.0405296;
   (2, 0, 0) 0.683058 0.316743 0.000199084;
   (0, 0, 0) 0.86055 0.13346 0.00598981;
   (7, 0, 0) 0.851563 0.148328 0.00010819;
   (8, 0, 0) 0.333333 0.333333 0.333333;
   (3, 7, 0) 0.721303 0.278163 0.000533903;
   (4, 7, 0) 0.736655 0.262159 0.00118624;
   (6, 7, 0) 0.88695 0.112352 0.000697837;
   (5, 7, 0) 0.647376 0.351279 0.00134589;
   (1, 7, 0) 0.567279 0.432489 0.000232396;
   (2, 7, 0) 0.619279 0.3805 0.000221092;
   (0, 7, 0) 0.787506 0.212454 4.03828e-005;
   (7, 7, 0) 0.784751 0.214974 0.000275255;
   (8, 7, 0) 0.333333 0.333333 0.333333;
   (3, 1, 0) 0.58935 0.410138 0.000512033;
   (4, 1, 0) 0.492497 0.506139 0.00136426;
   (6, 1, 0) 0.930636 0.0635838 0.00578035;
   (5, 1, 0) 0.711559 0.287381 0.00106045;
   (1, 1, 0) 0.833495 0.146176 0.0203291;
   (2, 1, 0) 0.86016 0.139111 0.000728332;
   (0, 1, 0) 0.779174 0.196565 0.0242609;
   (7, 1, 0) 0.860977 0.138334 0.000688231;
   (8, 1, 0) 0.333333 0.333333 0.333333;
   (3, 6, 0) 0.679458 0.318284 0.00225734;
   (4, 6, 0) 0.866232 0.132137 0.00163132;
   (6, 6, 0) 0.806971 0.190349 0.00268097;
   (5, 6, 0) 0.887689 0.110151 0.00215983;
   (1, 6, 0) 0.570505 0.428202 0.00129366;
   (2, 6, 0) 0.476246 0.522596 0.00115875;
   (0, 6, 0) 0.702147 0.295467 0.00238555;
   (7, 6, 0) 0.56056 0.438831 0.000608643;
   (8, 6, 0) 0.333333 0.333333 0.333333;
   (3, 5, 0) 0.747927 0.250415 0.00165837;
   (4, 5, 0) 0.113553 0.882784 0.003663;
   (6, 5, 0) 0.529412 0.467492 0.00309598;
   (5, 5, 0) 0.674912 0.321555 0.00353357;
   (1, 5, 0) 0.607748 0.38983 0.00242131;
   (2, 5, 0) 0.858764 0.139975 0.00126103;
   (0, 5, 0) 0.799771 0.178765 0.0214649;
   (7, 5, 0) 0.64366 0.354735 0.00160514;
   (8, 5, 0) 0.333333 0.333333 0.333333;
   (3, 2, 0) 0.759086 0.239875 0.00103842;
   (4, 2, 0) 0.73057 0.264249 0.00518135;
   (6, 2, 0) 0.773585 0.207547 0.0188679;
   (5, 2, 0) 0.972603 0.0136986 0.0136986;
   (1, 2, 0) 0.625498 0.333333 0.0411687;
   (2, 2, 0) 0.839442 0.158813 0.0017452;
   (0, 2, 0) 0.634761 0.365135 0.000103702;
   (7, 2, 0) 0.901345 0.0941704 0.00448431;
   (8, 2, 0) 0.333333 0.333333 0.333333;
   (3, 4, 0) 0.73599 0.262765 0.00124533;
   (4, 4, 0) 0.636364 0.356643 0.00699301;
   (6, 4, 0) 0.333333 0.333333 0.333333;
   (5, 4, 0) 0.953488 0.0232558 0.0232558;
   (1, 4, 0) 0.460076 0.536122 0.00380228;
   (2, 4, 0) 0.665284 0.333333 0.00138313;
   (0, 4, 0) 0.592659 0.375224 0.0321165;
   (7, 4, 0) 0.427896 0.56974 0.00236407;
   (8, 4, 0) 0.333333 0.333333 0.333333;
   (3, 8, 0) 0.333333 0.333333 0.333333;
   (4, 8, 0) 0.939394 0.030303 0.030303;
   (6, 8, 0) 0.333333 0.333333 0.333333;
   (5, 8, 0) 0.333333 0.333333 0.333333;
   (1, 8, 0) 0.333333 0.333333 0.333333;
   (2, 8, 0) 0.913043 0.0434783 0.0434783;
   (0, 8, 0) 0.846154 0.0769231 0.0769231;
   (7, 8, 0) 0.333333 0.333333 0.333333;
   (8, 8, 0) 0.333333 0.333333 0.333333;
   (3, 3, 0) 0.252033 0.739837 0.00813008;
   (4, 3, 0) 0.333333 0.333333 0.333333;
   (6, 3, 0) 0.333333 0.333333 0.333333;
   (5, 3, 0) 0.333333 0.333333 0.333333;
   (1, 3, 0) 0.770492 0.224044 0.00546448;
   (2, 3, 0) 0.12253 0.873518 0.00395257;
   (0, 3, 0) 0.559677 0.440024 0.000299133;
   (7, 3, 0) 0.992395 0.00380228 0.00380228;
   (8, 3, 0) 0.333333 0.333333 0.333333;
   (3, 0, 1) 0.280157 0.719563 0.000279877;
   (4, 0, 1) 0.842136 0.157284 0.000580383;
   (6, 0, 1) 0.863277 0.136579 0.000143616;
   (5, 0, 1) 0.779929 0.219562 0.000509424;
   (1, 0, 1) 0.745902 0.248974 0.00512415;
   (2, 0, 1) 0.746838 0.248713 0.0044491;
   (0, 0, 1) 0.706659 0.285942 0.00739881;
   (7, 0, 1) 0.783202 0.21608 0.000717875;
   (8, 0, 1) 0.333333 0.333333 0.333333;
   (3, 7, 1) 0.705693 0.293949 0.000358038;
   (4, 7, 1) 0.444276 0.555219 0.000504286;
   (6, 7, 1) 0.657704 0.341869 0.000426803;
   (5, 7, 1) 0.476537 0.522802 0.000660939;
   (1, 7, 1) 0.732977 0.266993 3.00634e-005;
   (2, 7, 1) 0.861355 0.13854 0.000105675;
   (0, 7, 1) 0.667397 0.332289 0.000313185;
   (7, 7, 1) 0.929619 0.0694037 0.000977517;
   (8, 7, 1) 0.333333 0.333333 0.333333;
   (3, 1, 1) 0.394834 0.603936 0.00123001;
   (4, 1, 1) 0.941019 0.0563003 0.00268097;
   (6, 1, 1) 0.734729 0.263525 0.0017452;
   (5, 1, 1) 0.591906 0.406408 0.00168634;
   (1, 1, 1) 0.807615 0.192311 7.42225e-005;
   (2, 1, 1) 0.78674 0.212577 0.000683527;
   (0, 1, 1) 0.75455 0.166927 0.0785231;
   (7, 1, 1) 0.650794 0.333333 0.015873;
   (8, 1, 1) 0.333333 0.333333 0.333333;
   (3, 6, 1) 0.687031 0.311897 0.00107181;
   (4, 6, 1) 0.495935 0.495935 0.00813008;
   (6, 6, 1) 0.68246 0.316708 0.000831255;
   (5, 6, 1) 0.648069 0.347639 0.00429185;
   (1, 6, 1) 0.55347 0.399495 0.0470348;
   (2, 6, 1) 0.451015 0.548102 0.000882613;
   (0, 6, 1) 0.789665 0.209429 0.000906618;
   (7, 6, 1) 0.0120482 0.975904 0.0120482;
   (8, 6, 1) 0.333333 0.333333 0.333333;
   (3, 5, 1) 0.251232 0.743842 0.00492611;
   (4, 5, 1) 0.216783 0.776224 0.00699301;
   (6, 5, 1) 0.83659 0.161634 0.0017762;
   (5, 5, 1) 0.80531 0.185841 0.00884956;
   (1, 5, 1) 0.657257 0.339995 0.00274794;
   (2, 5, 1) 0.629403 0.369066 0.00153139;
   (0, 5, 1) 0.608737 0.390313 0.000949668;
   (7, 5, 1) 0.972603 0.0136986 0.0136986;
   (8, 5, 1) 0.333333 0.333333 0.333333;
   (3, 2, 1) 0.416252 0.58209 0.00165837;
   (4, 2, 1) 0.887399 0.10992 0.00268097;
   (6, 2, 1) 0.125778 0.872976 0.00124533;
   (5, 2, 1) 0.924051 0.074141 0.00180832;
   (1, 2, 1) 0.775181 0.201599 0.0232201;
   (2, 2, 1) 0.881674 0.116883 0.001443;
   (0, 2, 1) 0.683421 0.150788 0.165791;
   (7, 2, 1) 0.962264 0.0188679 0.0188679;
   (8, 2, 1) 0.333333 0.333333 0.333333;
   (3, 4, 1) 0.933747 0.0641822 0.00207039;
   (4, 4, 1) 0.152709 0.842365 0.00492611;
   (6, 4, 1) 0.861386 0.135314 0.00330033;
   (5, 4, 1) 0.809524 0.174603 0.015873;
   (1, 4, 1) 0.682729 0.236018 0.0812522;
   (2, 4, 1) 0.333333 0.661972 0.00469484;
   (0, 4, 1) 0.697813 0.300199 0.00198807;
   (7, 4, 1) 0.333333 0.333333 0.333333;
   (8, 4, 1) 0.333333 0.333333 0.333333;
   (3, 8, 1) 0.333333 0.333333 0.333333;
   (4, 8, 1) 0.333333 0.333333 0.333333;
   (6, 8, 1) 0.333333 0.333333 0.333333;
   (5, 8, 1) 0.0769231 0.846154 0.0769231;
   (1, 8, 1) 0.913043 0.0434783 0.0434783;
   (2, 8, 1) 0.333333 0.333333 0.333333;
   (0, 8, 1) 0.333333 0.333333 0.333333;
   (7, 8, 1) 0.333333 0.333333 0.333333;
   (8, 8, 1) 0.333333 0.333333 0.333333;
   (3, 3, 1) 0.542601 0.452915 0.00448431;
   (4, 3, 1) 0.846154 0.0769231 0.0769231;
   (6, 3, 1) 0.498099 0.498099 0.00380228;
   (5, 3, 1) 0.978495 0.0107527 0.0107527;
   (1, 3, 1) 0.586486 0.413226 0.000288767;
   (2, 3, 1) 0.254344 0.744076 0.00157978;
   (0, 3, 1) 0.76054 0.237774 0.00168634;
   (7, 3, 1) 0.913043 0.0434783 0.0434783;
   (8, 3, 1) 0.333333 0.333333 0.333333;
   (3, 0, 7) 0.0769231 0.846154 0.0769231;
   (4, 0, 7) 0.769596 0.23026 0.000143823;
   (6, 0, 7) 0.823121 0.176681 0.000198295;
   (5, 0, 7) 0.65487 0.344817 0.000313185;
   (1, 0, 7) 0.607648 0.391521 0.000831255;
   (2, 0, 7) 0.442623 0.551913 0.00546448;
   (0, 0, 7) 0.812283 0.186559 0.00115875;
   (7, 0, 7) 0.737269 0.229075 0.0336556;
   (8, 0, 7) 0.333333 0.333333 0.333333;
   (3, 7, 7) 0.0769231 0.846154 0.0769231;
   (4, 7, 7) 0.702924 0.296865 0.000210393;
   (6, 7, 7) 0.818668 0.181233 9.89805e-005;
   (5, 7, 7) 0.904731 0.0951601 0.000109254;
   (1, 7, 7) 0.819743 0.175966 0.00429185;
   (2, 7, 7) 0.846154 0.0769231 0.0769231;
   (0, 7, 7) 0.943275 0.0558097 0.000914913;
   (7, 7, 7) 0.739526 0.260447 2.66007e-005;
   (8, 7, 7) 0.333333 0.333333 0.333333;
   (3, 1, 7) 0.333333 0.333333 0.333333;
   (4, 1, 7) 0.433814 0.551769 0.0144168;
   (6, 1, 7) 0.734704 0.264807 0.000489476;
   (5, 1, 7) 0.470186 0.528837 0.000977517;
   (1, 1, 7) 0.119534 0.877551 0.00291545;
   (2, 1, 7) 0.333333 0.333333 0.333333;
   (0, 1, 7) 0.815029 0.179191 0.00578035;
   (7, 1, 7) 0.695631 0.298326 0.00604379;
   (8, 1, 7) 0.333333 0.333333 0.333333;
   (3, 6, 7) 0.488372 0.488372 0.0232558;
   (4, 6, 7) 0.602676 0.396809 0.000514668;
   (6, 6, 7) 0.715829 0.283834 0.000337496;
   (5, 6, 7) 0.481208 0.518176 0.000616143;
   (1, 6, 7) 0.773585 0.207547 0.0188679;
   (2, 6, 7) 0.333333 0.333333 0.333333;
   (0, 6, 7) 0.827993 0.17032 0.00168634;
   (7, 6, 7) 0.681771 0.318149 7.99169e-005;
   (8, 6, 7) 0.333333 0.333333 0.333333;
   (3, 5, 7) 0.373494 0.614458 0.0120482;
   (4, 5, 7) 0.567753 0.430532 0.00171527;
   (6, 5, 7) 0.465211 0.437926 0.0968622;
   (5, 5, 7) 0.323572 0.674963 0.00146413;
   (1, 5, 7) 0.333333 0.333333 0.333333;
   (2, 5, 7) 0.809524 0.174603 0.015873;
   (0, 5, 7) 0.251534 0.742331 0.00613497;
   (7, 5, 7) 0.670725 0.280029 0.0492459;
   (8, 5, 7) 0.333333 0.333333 0.333333;
   (3, 2, 7) 0.478261 0.478261 0.0434783;
   (4, 2, 7) 0.797217 0.200795 0.00198807;
   (6, 2, 7) 0.59584 0.402675 0.00148588;
   (5, 2, 7) 0.910492 0.0887748 0.000733676;
   (1, 2, 7) 0.175966 0.819743 0.00429185;
   (2, 2, 7) 0.0769231 0.846154 0.0769231;
   (0, 2, 7) 0.0769231 0.846154 0.0769231;
   (7, 2, 7) 0.72394 0.275821 0.000239636;
   (8, 2, 7) 0.333333 0.333333 0.333333;
   (3, 4, 7) 0.333333 0.333333 0.333333;
   (4, 4, 7) 0.996569 0.00171527 0.00171527;
   (6, 4, 7) 0.00353357 0.886926 0.109541;
   (5, 4, 7) 0.606911 0.390929 0.00215983;
   (1, 4, 7) 0.333333 0.333333 0.333333;
   (2, 4, 7) 0.913043 0.0434783 0.0434783;
   (0, 4, 7) 0.030303 0.939394 0.030303;
   (7, 4, 7) 0.894081 0.0737279 0.0321911;
   (8, 4, 7) 0.333333 0.333333 0.333333;
   (3, 8, 7) 0.333333 0.333333 0.333333;
   (4, 8, 7) 0.333333 0.333333 0.333333;
   (6, 8, 7) 0.333333 0.333333 0.333333;
   (5, 8, 7) 0.846154 0.0769231 0.0769231;
   (1, 8, 7) 0.333333 0.333333 0.333333;
   (2, 8, 7) 0.333333 0.333333 0.333333;
   (0, 8, 7) 0.333333 0.333333 0.333333;
   (7, 8, 7) 0.333333 0.333333 0.333333;
   (8, 8, 7) 0.333333 0.333333 0.333333;
   (3, 3, 7) 0.333333 0.333333 0.333333;
   (4, 3, 7) 0.918575 0.0788804 0.00254453;
   (6, 3, 7) 0.343239 0.655275 0.00148588;
   (5, 3, 7) 0.879781 0.114754 0.00546448;
   (1, 3, 7) 0.0769231 0.846154 0.0769231;
   (2, 3, 7) 0.333333 0.333333 0.333333;
   (0, 3, 7) 0.333333 0.333333 0.333333;
   (7, 3, 7) 0.78162 0.21806 0.000320205;
   (8, 3, 7) 0.333333 0.333333 0.333333;
   (3, 0, 8) 0.333333 0.333333 0.333333;
   (4, 0, 8) 0.333333 0.333333 0.333333;
   (6, 0, 8) 0.333333 0.333333 0.333333;
   (5, 0, 8) 0.333333 0.333333 0.333333;
   (1, 0, 8) 0.333333 0.333333 0.333333;
   (2, 0, 8) 0.333333 0.333333 0.333333;
   (0, 0, 8) 0.333333 0.333333 0.333333;
   (7, 0, 8) 0.333333 0.333333 0.333333;
   (8, 0, 8) 0.333333 0.333333 0.333333;
   (3, 7, 8) 0.333333 0.333333 0.333333;
   (4, 7, 8) 0.333333 0.333333 0.333333;
   (6, 7, 8) 0.333333 0.333333 0.333333;
   (5, 7, 8) 0.333333 0.333333 0.333333;
   (1, 7, 8) 0.333333 0.333333 0.333333;
   (2, 7, 8) 0.333333 0.333333 0.333333;
   (0, 7, 8) 0.846154 0.0769231 0.0769231;
   (7, 7, 8) 0.0769231 0.846154 0.0769231;
   (8, 7, 8) 0.333333 0.333333 0.333333;
   (3, 1, 8) 0.333333 0.333333 0.333333;
   (4, 1, 8) 0.333333 0.333333 0.333333;
   (6, 1, 8) 0.333333 0.333333 0.333333;
   (5, 1, 8) 0.333333 0.333333 0.333333;
   (1, 1, 8) 0.333333 0.333333 0.333333;
   (2, 1, 8) 0.333333 0.333333 0.333333;
   (0, 1, 8) 0.333333 0.333333 0.333333;
   (7, 1, 8) 0.333333 0.333333 0.333333;
   (8, 1, 8) 0.333333 0.333333 0.333333;
   (3, 6, 8) 0.333333 0.333333 0.333333;
   (4, 6, 8) 0.333333 0.333333 0.333333;
   (6, 6, 8) 0.333333 0.333333 0.333333;
   (5, 6, 8) 0.333333 0.333333 0.333333;
   (1, 6, 8) 0.333333 0.333333 0.333333;
   (2, 6, 8) 0.333333 0.333333 0.333333;
   (0, 6, 8) 0.333333 0.333333 0.333333;
   (7, 6, 8) 0.333333 0.333333 0.333333;
   (8, 6, 8) 0.0769231 0.846154 0.0769231;
   (3, 5, 8) 0.333333 0.333333 0.333333;
   (4, 5, 8) 0.333333 0.333333 0.333333;
   (6, 5, 8) 0.333333 0.333333 0.333333;
   (5, 5, 8) 0.333333 0.333333 0.333333;
   (1, 5, 8) 0.333333 0.333333 0.333333;
   (2, 5, 8) 0.333333 0.333333 0.333333;
   (0, 5, 8) 0.333333 0.333333 0.333333;
   (7, 5, 8) 0.0434783 0.913043 0.0434783;
   (8, 5, 8) 0.333333 0.333333 0.333333;
   (3, 2, 8) 0.333333 0.333333 0.333333;
   (4, 2, 8) 0.333333 0.333333 0.333333;
   (6, 2, 8) 0.333333 0.333333 0.333333;
   (5, 2, 8) 0.333333 0.333333 0.333333;
   (1, 2, 8) 0.333333 0.333333 0.333333;
   (2, 2, 8) 0.333333 0.333333 0.333333;
   (0, 2, 8) 0.333333 0.333333 0.333333;
   (7, 2, 8) 0.333333 0.333333 0.333333;
   (8, 2, 8) 0.333333 0.333333 0.333333;
   (3, 4, 8) 0.333333 0.333333 0.333333;
   (4, 4, 8) 0.333333 0.333333 0.333333;
   (6, 4, 8) 0.333333 0.333333 0.333333;
   (5, 4, 8) 0.333333 0.333333 0.333333;
   (1, 4, 8) 0.333333 0.333333 0.333333;
   (2, 4, 8) 0.333333 0.333333 0.333333;
   (0, 4, 8) 0.333333 0.333333 0.333333;
   (7, 4, 8) 0.846154 0.0769231 0.0769231;
   (8, 4, 8) 0.333333 0.333333 0.333333;
   (3, 8, 8) 0.333333 0.333333 0.333333;
   (4, 8, 8) 0.333333 0.333333 0.333333;
   (6, 8, 8) 0.333333 0.333333 0.333333;
   (5, 8, 8) 0.333333 0.333333 0.333333;
   (1, 8, 8) 0.333333 0.333333 0.333333;
   (2, 8, 8) 0.333333 0.333333 0.333333;
   (0, 8, 8) 0.333333 0.333333 0.333333;
   (7, 8, 8) 0.333333 0.333333 0.333333;
   (8, 8, 8) 0.333333 0.333333 0.333333;
   (3, 3, 8) 0.333333 0.333333 0.333333;
   (4, 3, 8) 0.333333 0.333333 0.333333;
   (6, 3, 8) 0.333333 0.333333 0.333333;
   (5, 3, 8) 0.333333 0.333333 0.333333;
   (1, 3, 8) 0.333333 0.333333 0.333333;
   (2, 3, 8) 0.333333 0.333333 0.333333;
   (0, 3, 8) 0.333333 0.333333 0.333333;
   (7, 3, 8) 0.333333 0.333333 0.333333;
   (8, 3, 8) 0.333333 0.333333 0.333333;
}
probability (direction? | dir_coll_2?, dir_coll_1?, dir_coll_3?) {
   (3, 3, 3) 0.419387 0.196284 0.101758 0.120418 0.0425094 0.0525886 0.0283442 1.36205e-005 0.0386957;
   (4, 3, 3) 0.397849 0.00358423 0.0394265 0.326165 0.00358423 0.0752688 0.146953 0.00358423 0.00358423;
   (6, 3, 3) 0.0570236 0.0848401 0.668985 0.140473 0.00139082 0.0431154 0.00139082 0.00139082 0.00139082;
   (5, 3, 3) 0.375661 0.00529101 0.216931 0.111111 0.00529101 0.0582011 0.216931 0.00529101 0.00529101;
   (1, 3, 3) 0.361321 0.239389 0.120543 0.139065 0.0449143 0.0634357 0.00941503 0.000154345 0.0217626;
   (0, 3, 3) 0.438047 0.252322 0.0665959 0.0851685 0.0374105 0.0639427 0.0188379 0.000265322 0.0374105;
   (2, 3, 3) 0.580163 0.160162 0.0594934 0.0982754 0.0363891 0.0322634 0.00750887 8.25151e-005 0.0256622;
   (7, 3, 3) 0.00250627 0.00250627 0.478697 0.328321 0.0526316 0.12782 0.00250627 0.00250627 0.00250627;
   (8, 3, 3) 0.111111 0.111111 0.111111 0.111111 0.111111 0.111111 0.111111 0.111111 0.111111;
   (3, 4, 3) 0.463415 0.165312 0.246612 0.111111 0.00271003 0.00271003 0.00271003 0.00271003 0.00271003;
   (4, 4, 3) 0.0480693 0.0953507 0.00866824 0.0401891 0.07171 0.118991 0.268716 0.000788022 0.347518;
   (6, 4, 3) 0.111111 0.111111 0.111111 0.111111 0.111111 0.111111 0.111111 0.111111 0.111111;
   (5, 4, 3) 0.0526316 0.0526316 0.0526316 0.0526316 0.578947 0.0526316 0.0526316 0.0526316 0.0526316;
   (1, 4, 3) 0.0526316 0.0526316 0.0526316 0.0526316 0.578947 0.0526316 0.0526316 0.0526316 0.0526316;
   (0, 4, 3) 0.864407 0.0169492 0.0169492 0.0169492 0.0169492 0.0169492 0.0169492 0.0169492 0.0169492;
   (2, 4, 3) 0.694915 0.0169492 0.0169492 0.186441 0.0169492 0.0169492 0.0169492 0.0169492 0.0169492;
   (7, 4, 3) 0.0526316 0.0526316 0.0526316 0.0526316 0.0526316 0.0526316 0.578947 0.0526316 0.0526316;
   (8, 4, 3) 0.111111 0.111111 0.111111 0.111111 0.111111 0.111111 0.111111 0.111111 0.111111;
   (3, 6, 3) 0.00104275 0.303441 0.68926 0.00104275 0.00104275 0.00104275 0.00104275 0.00104275 0.00104275;
   (4, 6, 3) 0.00917431 0.284404 0.00917431 0.651376 0.00917431 0.00917431 0.00917431 0.00917431 0.00917431;
   (6, 6, 3) 0.319681 0.52446 0.0352673 0.0807736 0.0125142 0.00113766 0.0238908 0.00113766 0.00113766;
   (5, 6, 3) 0.0344828 0.0344828 0.37931 0.37931 0.0344828 0.0344828 0.0344828 0.0344828 0.0344828;
   (1, 6, 3) 0.111111 0.111111 0.111111 0.111111 0.111111 0.111111 0.111111 0.111111 0.111111;
   (0, 6, 3) 0.910112 0.011236 0.011236 0.011236 0.011236 0.011236 0.011236 0.011236 0.011236;
   (2, 6, 3) 0.111111 0.111111 0.111111 0.111111 0.111111 0.111111 0.111111 0.111111 0.111111;
   (7, 6, 3) 0.111111 0.111111 0.111111 0.111111 0.111111 0.111111 0.111111 0.111111 0.111111;
   (8, 6, 3) 0.111111 0.111111 0.111111 0.111111 0.111111 0.111111 0.111111 0.111111 0.111111;
   (3, 5, 3) 0.468662 0.103835 0.188026 0.122544 0.0477081 0.000935454 0.0664172 0.000935454 0.000935454;
   (4, 5, 3) 0.0690423 0.291759 0.135857 0.091314 0.291759 0.113586 0.00222717 0.00222717 0.00222717;
   (6, 5, 3) 0.111111 0.111111 0.111111 0.111111 0.111111 0.111111 0.111111 0.111111 0.111111;
   (5, 5, 3) 0.16321 0.154193 0.361587 0.10009 0.0279531 0.091073 0.0550045 0.000901713 0.0459874;
   (1, 5, 3) 0.111111 0.111111 0.111111 0.111111 0.111111 0.111111 0.111111 0.111111 0.111111;
   (0, 5, 3) 0.111111 0.111111 0.111111 0.111111 0.111111 0.111111 0.111111 0.111111 0.111111;
   (2, 5, 3) 0.111111 0.111111 0.111111 0.111111 0.111111 0.111111 0.111111 0.111111 0.111111;
   (7, 5, 3) 0.111111 0.111111 0.111111 0.111111 0.111111 0.111111 0.111111 0.111111 0.111111;
   (8, 5, 3) 0.111111 0.111111 0.111111 0.111111 0.111111 0.111111 0.111111 0.111111 0.111111;
   (3, 1, 3) 0.330171 0.363168 0.0600124 0.134254 0.020829 0.0414518 0.0187668 0.000206228 0.0311404;
   (4, 1, 3) 0.111111 0.111111 0.111111 0.111111 0.111111 0.111111 0.111111 0.111111 0.111111;
   (6, 1, 3) 0.0344828 0.0344828 0.724138 0.0344828 0.0344828 0.0344828 0.0344828 0.0344828 0.0344828;
   (5, 1, 3) 0.111111 0.111111 0.111111 0.111111 0.111111 0.111111 0.111111 0.111111 0.111111;
   (1, 1, 3) 0.473447 0.201578 0.0973377 0.0466263 0.0522609 0.102972 0.00436681 0.000140865 0.0212706;
   (0, 1, 3) 0.00775194 0.472868 0.00775194 0.472868 0.00775194 0.00775194 0.00775194 0.00775194 0.00775194;
   (2, 1, 3) 0.0429448 0.247444 0.0838446 0.595092 0.00204499 0.0224949 0.00204499 0.00204499 0.00204499;
   (7, 1, 3) 0.111111 0.111111 0.111111 0.111111 0.111111 0.111111 0.111111 0.111111 0.111111;
   (8, 1, 3) 0.111111 0.111111 0.111111 0.111111 0.111111 0.111111 0.111111 0.111111 0.111111;
   (3, 2, 3) 0.309844 0.208722 0.0902196 0.13288 0.1234 0.0712593 0.0491389 0.000158003 0.0143783;
   (4, 2, 3) 0.111111 0.111111 0.111111 0.111111 0.111111 0.111111 0.111111 0.111111 0.111111;
   (6, 2, 3) 0.010101 0.010101 0.919192 0.010101 0.010101 0.010101 0.010101 0.010101 0.010101;
   (5, 2, 3) 0.0526316 0.0526316 0.578947 0.0526316 0.0526316 0.0526316 0.0526316 0.0526316 0.0526316;
   (1, 2, 3) 0.282051 0.025641 0.025641 0.538462 0.025641 0.025641 0.025641 0.025641 0.025641;
   (0, 2, 3) 0.26408 0.151439 0.0888611 0.389237 0.0262829 0.0513141 0.0262829 0.00125156 0.00125156;
   (2, 2, 3) 0.306529 0.361392 0.143507 0.0494553 0.0353476 0.0745356 0.0126185 7.8376e-005 0.0165373;
   (7, 2, 3) 0.111111 0.111111 0.111111 0.111111 0.111111 0.111111 0.111111 0.111111 0.111111;
   (8, 2, 3) 0.111111 0.111111 0.111111 0.111111 0.111111 0.111111 0.111111 0.111111 0.111111;
   (3, 0, 3) 0.394998 0.404037 0.0364568 0.021392 0.0726122 0.0304309 0.0304309 0.000301296 0.00934016;
   (4, 0, 3) 0.111111 0.111111 0.111111 0.111111 0.111111 0.111111 0.111111 0.111111 0.111111;
   (6, 0, 3) 0.111111 0.111111 0.111111 0.111111 0.111111 0.111111 0.111111 0.111111 0.111111;
   (5, 0, 3) 0.111111 0.111111 0.111111 0.111111 0.111111 0.111111 0.111111 0.111111 0.111111;
   (1, 0, 3) 0.481481 0.0582011 0.0582011 0.00529101 0.375661 0.00529101 0.00529101 0.00529101 0.00529101;
   (0, 0, 3) 0.348281 0.33566 0.109214 0.0743188 0.0349692 0.0616972 0.0260598 7.42446e-005 0.00972604;
   (2, 0, 3) 0.139241 0.265823 0.518987 0.0126582 0.0126582 0.0126582 0.0126582 0.0126582 0.0126582;
   (7, 0, 3) 0.111111 0.111111 0.111111 0.111111 0.111111 0.111111 0.111111 0.111111 0.111111;
   (8, 0, 3) 0.111111 0.111111 0.111111 0.111111 0.111111 0.111111 0.111111 0.111111 0.111111;
   (3, 7, 3) 0.111111 0.111111 0.111111 0.111111 0.111111 0.111111 0.111111 0.111111 0.111111;
   (4, 7, 3) 0.111111 0.111111 0.111111 0.111111 0.111111 0.111111 0.111111 0.111111 0.111111;
   (6, 7, 3) 0.111111 0.111111 0.111111 0.111111 0.111111 0.111111 0.111111 0.111111 0.111111;
   (5, 7, 3) 0.0204082 0.0204082 0.0204082 0.836735 0.0204082 0.0204082 0.0204082 0.0204082 0.0204082;
   (1, 7, 3) 0.111111 0.111111 0.111111 0.111111 0.111111 0.111111 0.111111 0.111111 0.111111;
   (0, 7, 3) 0.0526316 0.578947 0.0526316 0.0526316 0.0526316 0.0526316 0.0526316 0.0526316 0.0526316;
   (2, 7, 3) 0.111111 0.111111 0.111111 0.111111 0.111111 0.111111 0.111111 0.111111 0.111111;
   (7, 7, 3) 0.165501 0.118881 0.0722611 0.351981 0.0722611 0.212121 0.002331 0.002331 0.002331;
   (8, 7, 3) 0.111111 0.111111 0.111111 0.111111 0.111111 0.111111 0.111111 0.111111 0.111111;
   (3, 8, 3) 0.111111 0.111111 0.111111 0.111111 0.111111 0.111111 0.111111 0.111111 0.111111;
   (4, 8, 3) 0.111111 0.111111 0.111111 0.111111 0.111111 0.111111 0.111111 0.111111 0.111111;
   (6, 8, 3) 0.111111 0.111111 0.111111 0.111111 0.111111 0.111111 0.111111 0.111111 0.111111;
   (5, 8, 3) 0.111111 0.111111 0.111111 0.111111 0.111111 0.111111 0.111111 0.111111 0.111111;
   (1, 8, 3) 0.111111 0.111111 0.111111 0.111111 0.111111 0.111111 0.111111 0.111111 0.111111;
   (0, 8, 3) 0.111111 0.111111 0.111111 0.111111 0.111111 0.111111 0.111111 0.111111 0.111111;
   (2, 8, 3) 0.111111 0.111111 0.111111 0.111111 0.111111 0.111111 0.111111 0.111111 0.111111;
   (7, 8, 3) 0.111111 0.111111 0.111111 0.111111 0.111111 0.111111 0.111111 0.111111 0.111111;
   (8, 8, 3) 0.111111 0.111111 0.111111 0.111111 0.111111 0.111111 0.111111 0.111111 0.111111;
   (3, 3, 4) 0.0488391 0.0248199 0.13691 0.345076 0.0248199 0.401121 0.0168135 0.00080064 0.00080064;
   (4, 3, 4) 0.368829 0.168355 0.1662 0.086441 0.0217719 0.0713516 0.0778185 0.000215564 0.039017;
   (6, 3, 4) 0.111111 0.111111 0.111111 0.111111 0.111111 0.111111 0.111111 0.111111 0.111111;
   (5, 3, 4) 0.111111 0.111111 0.111111 0.111111 0.111111 0.111111 0.111111 0.111111 0.111111;
   (1, 3, 4) 0.111111 0.111111 0.111111 0.111111 0.111111 0.111111 0.111111 0.111111 0.111111;
   (0, 3, 4) 0.464435 0.0041841 0.506276 0.0041841 0.0041841 0.0041841 0.0041841 0.0041841 0.0041841;
   (2, 3, 4) 0.0344828 0.0344828 0.37931 0.0344828 0.37931 0.0344828 0.0344828 0.0344828 0.0344828;
   (7, 3, 4) 0.0526316 0.0526316 0.0526316 0.578947 0.0526316 0.0526316 0.0526316 0.0526316 0.0526316;
   (8, 3, 4) 0.111111 0.111111 0.111111 0.111111 0.111111 0.111111 0.111111 0.111111 0.111111;
   (3, 4, 4) 0.394391 0.0943322 0.05707 0.0825652 0.0747205 0.159051 0.0374583 0.000196117 0.100216;
   (4, 4, 4) 0.256155 0.426562 0.0704853 0.110167 0.0446058 0.0365101 0.0248311 0.000278703 0.0304052;
   (6, 4, 4) 0.292443 0.311821 0.107928 0.109613 0.0438959 0.0590614 0.0236751 8.42531e-005 0.0514786;
   (5, 4, 4) 0.403304 0.358905 0.0699469 0.0866875 0.0219084 0.0204527 0.0160856 7.27855e-005 0.0226363;
   (1, 4, 4) 0.548328 0.300962 0.0138953 0.084135 0.0138953 0.0261109 0.000152695 0.000152695 0.0123683;
   (0, 4, 4) 0.354148 0.316028 0.107279 0.0746052 0.0618987 0.0419314 0.0346705 0.000181521 0.00925758;
   (2, 4, 4) 0.363278 0.103231 0.252955 0.174153 0.000788022 0.07171 0.000788022 0.000788022 0.0323089;
   (7, 4, 4) 0.129965 0.311223 0.0579766 0.140249 0.0374084 0.0656897 0.046407 0.000128551 0.210953;
   (8, 4, 4) 0.111111 0.111111 0.111111 0.111111 0.111111 0.111111 0.111111 0.111111 0.111111;
   (3, 6, 4) 0.111111 0.111111 0.111111 0.111111 0.111111 0.111111 0.111111 0.111111 0.111111;
   (4, 6, 4) 0.297449 0.301466 0.122715 0.215103 0.0162683 0.0443864 0.000200844 0.000200844 0.00220928;
   (6, 6, 4) 0.248452 0.468424 0.0670843 0.129725 0.0190109 0.049603 0.0124554 7.28385e-005 0.00517153;
   (5, 6, 4) 0.025641 0.794872 0.025641 0.025641 0.025641 0.025641 0.025641 0.025641 0.025641;
   (1, 6, 4) 0.932773 0.00840336 0.00840336 0.00840336 0.00840336 0.00840336 0.00840336 0.00840336 0.00840336;
   (0, 6, 4) 0.111111 0.111111 0.111111 0.111111 0.111111 0.111111 0.111111 0.111111 0.111111;
   (2, 6, 4) 0.111111 0.111111 0.111111 0.111111 0.111111 0.111111 0.111111 0.111111 0.111111;
   (7, 6, 4) 0.152882 0.403509 0.378446 0.0526316 0.00250627 0.00250627 0.00250627 0.00250627 0.00250627;
   (8, 6, 4) 0.111111 0.111111 0.111111 0.111111 0.111111 0.111111 0.111111 0.111111 0.111111;
   (3, 5, 4) 0.111111 0.111111 0.111111 0.111111 0.111111 0.111111 0.111111 0.111111 0.111111;
   (4, 5, 4) 0.285664 0.289186 0.165903 0.229306 0.000352237 0.0214864 0.00739697 0.000352237 0.000352237;
   (6, 5, 4) 0.0526316 0.196172 0.0526316 0.626794 0.00478469 0.0526316 0.00478469 0.00478469 0.00478469;
   (5, 5, 4) 0.270298 0.443716 0.0392794 0.0962682 0.0398922 0.0564373 0.0331515 0.000674061 0.0202831;
   (1, 5, 4) 0.111111 0.111111 0.111111 0.111111 0.111111 0.111111 0.111111 0.111111 0.111111;
   (0, 5, 4) 0.111111 0.111111 0.111111 0.111111 0.111111 0.111111 0.111111 0.111111 0.111111;
   (2, 5, 4) 0.0126582 0.139241 0.0126582 0.518987 0.0126582 0.265823 0.0126582 0.0126582 0.0126582;
   (7, 5, 4) 0.531191 0.304348 0.0964083 0.020794 0.00189036 0.00189036 0.00189036 0.00189036 0.0396975;
   (8, 5, 4) 0.111111 0.111111 0.111111 0.111111 0.111111 0.111111 0.111111 0.111111 0.111111;
   (3, 1, 4) 0.0526316 0.578947 0.0526316 0.0526316 0.0526316 0.0526316 0.0526316 0.0526316 0.0526316;
   (4, 1, 4) 0.904762 0.0582011 0.00529101 0.00529101 0.00529101 0.00529101 0.00529101 0.00529101 0.00529101;
   (6, 1, 4) 0.961722 0.00478469 0.00478469 0.00478469 0.00478469 0.00478469 0.00478469 0.00478469 0.00478469;
   (5, 1, 4) 0.111111 0.111111 0.111111 0.111111 0.111111 0.111111 0.111111 0.111111 0.111111;
   (1, 1, 4) 0.20151 0.276997 0.283288 0.0400503 0.0715035 0.0819878 0.0400503 0.000209688 0.00440344;
   (0, 1, 4) 0.111111 0.111111 0.111111 0.111111 0.111111 0.111111 0.111111 0.111111 0.111111;
   (2, 1, 4) 0.111111 0.111111 0.111111 0.111111 0.111111 0.111111 0.111111 0.111111 0.111111;
   (7, 1, 4) 0.111111 0.111111 0.111111 0.111111 0.111111 0.111111 0.111111 0.111111 0.111111;
   (8, 1, 4) 0.111111 0.111111 0.111111 0.111111 0.111111 0.111111 0.111111 0.111111 0.111111;
   (3, 2, 4) 0.772152 0.0126582 0.0126582 0.0126582 0.0126582 0.139241 0.0126582 0.0126582 0.0126582;
   (4, 2, 4) 0.0757946 0.0513447 0.198044 0.100244 0.222494 0.295844 0.0513447 0.00244499 0.00244499;
   (6, 2, 4) 0.111111 0.111111 0.111111 0.111111 0.111111 0.111111 0.111111 0.111111 0.111111;
   (5, 2, 4) 0.00671141 0.00671141 0.342282 0.00671141 0.610738 0.00671141 0.00671141 0.00671141 0.00671141;
   (1, 2, 4) 0.111111 0.111111 0.111111 0.111111 0.111111 0.111111 0.111111 0.111111 0.111111;
   (0, 2, 4) 0.111111 0.111111 0.111111 0.111111 0.111111 0.111111 0.111111 0.111111 0.111111;
   (2, 2, 4) 0.187462 0.0126582 0.422544 0.121157 0.0608801 0.145268 0.0307414 0.000602773 0.018686;
   (7, 2, 4) 0.111111 0.111111 0.111111 0.111111 0.111111 0.111111 0.111111 0.111111 0.111111;
   (8, 2, 4) 0.111111 0.111111 0.111111 0.111111 0.111111 0.111111 0.111111 0.111111 0.111111;
   (3, 0, 4) 0.910112 0.011236 0.011236 0.011236 0.011236 0.011236 0.011236 0.011236 0.011236;
   (4, 0, 4) 0.594203 0.304348 0.0144928 0.0144928 0.0144928 0.0144928 0.0144928 0.0144928 0.0144928;
   (6, 0, 4) 0.111111 0.111111 0.111111 0.111111 0.111111 0.111111 0.111111 0.111111 0.111111;
   (5, 0, 4) 0.111111 0.111111 0.111111 0.111111 0.111111 0.111111 0.111111 0.111111 0.111111;
   (1, 0, 4) 0.111111 0.111111 0.111111 0.111111 0.111111 0.111111 0.111111 0.111111 0.111111;
   (0, 0, 4) 0.355347 0.186408 0.100019 0.17297 0.100019 0.0251488 0.0558648 0.000191975 0.00403148;
   (2, 0, 4) 0.111111 0.111111 0.111111 0.111111 0.111111 0.111111 0.111111 0.111111 0.111111;
   (7, 0, 4) 0.111111 0.111111 0.111111 0.111111 0.111111 0.111111 0.111111 0.111111 0.111111;
   (8, 0, 4) 0.111111 0.111111 0.111111 0.111111 0.111111 0.111111 0.111111 0.111111 0.111111;
   (3, 7, 4) 0.111111 0.111111 0.111111 0.111111 0.111111 0.111111 0.111111 0.111111 0.111111;
   (4, 7, 4) 0.290167 0.237014 0.314327 0.0533945 0.00990577 0.024402 0.000241604 0.000241604 0.0703068;
   (6, 7, 4) 0.0211946 0.888247 0.0597303 0.0211946 0.00192678 0.00192678 0.00192678 0.00192678 0.00192678;
   (5, 7, 4) 0.00775194 0.395349 0.00775194 0.24031 0.24031 0.0852713 0.00775194 0.00775194 0.00775194;
   (1, 7, 4) 0.111111 0.111111 0.111111 0.111111 0.111111 0.111111 0.111111 0.111111 0.111111;
   (0, 7, 4) 0.111111 0.111111 0.111111 0.111111 0.111111 0.111111 0.111111 0.111111 0.111111;
   (2, 7, 4) 0.111111 0.111111 0.111111 0.111111 0.111111 0.111111 0.111111 0.111111 0.111111;
   (7, 7, 4) 0.076864 0.493797 0.0333802 0.259752 0.0359381 0.0282645 0.0269855 0.000127894 0.0448906;
   (8, 7, 4) 0.111111 0.111111 0.111111 0.111111 0.111111 0.111111 0.111111 0.111111 0.111111;
   (3, 8, 4) 0.111111 0.111111 0.111111 0.111111 0.111111 0.111111 0.111111 0.111111 0.111111;
   (4, 8, 4) 0.111111 0.111111 0.111111 0.111111 0.111111 0.111111 0.111111 0.111111 0.111111;
   (6, 8, 4) 0.111111 0.111111 0.111111 0.111111 0.111111 0.111111 0.111111 0.111111 0.111111;
   (5, 8, 4) 0.111111 0.111111 0.111111 0.111111 0.111111 0.111111 0.111111 0.111111 0.111111;
   (1, 8, 4) 0.111111 0.111111 0.111111 0.111111 0.111111 0.111111 0.111111 0.111111 0.111111;
   (0, 8, 4) 0.111111 0.111111 0.111111 0.111111 0.111111 0.111111 0.111111 0.111111 0.111111;
   (2, 8, 4) 0.111111 0.111111 0.111111 0.111111 0.111111 0.111111 0.111111 0.111111 0.111111;
   (7, 8, 4) 0.111111 0.111111 0.111111 0.111111 0.111111 0.111111 0.111111 0.111111 0.111111;
   (8, 8, 4) 0.111111 0.111111 0.111111 0.111111 0.111111 0.111111 0.111111 0.111111 0.111111;
   (3, 3, 6) 0.285583 0.230487 0.010101 0.0560147 0.258035 0.120294 0.010101 0.000918274 0.0284665;
   (4, 3, 6) 0.111111 0.111111 0.111111 0.111111 0.111111 0.111111 0.111111 0.111111 0.111111;
   (6, 3, 6) 0.111111 0.111111 0.111111 0.111111 0.111111 0.111111 0.111111 0.111111 0.111111;
   (5, 3, 6) 0.111111 0.111111 0.111111 0.111111 0.111111 0.111111 0.111111 0.111111 0.111111;
   (1, 3, 6) 0.0526316 0.578947 0.0526316 0.0526316 0.0526316 0.0526316 0.0526316 0.0526316 0.0526316;
   (0, 3, 6) 0.111111 0.111111 0.111111 0.111111 0.111111 0.111111 0.111111 0.111111 0.111111;
   (2, 3, 6) 0.111111 0.111111 0.111111 0.111111 0.111111 0.111111 0.111111 0.111111 0.111111;
   (7, 3, 6) 0.111111 0.111111 0.111111 0.111111 0.111111 0.111111 0.111111 0.111111 0.111111;
   (8, 3, 6) 0.111111 0.111111 0.111111 0.111111 0.111111 0.111111 0.111111 0.111111 0.111111;
   (3, 4, 6) 0.0204082 0.836735 0.0204082 0.0204082 0.0204082 0.0204082 0.0204082 0.0204082 0.0204082;
   (4, 4, 6) 0.340479 0.426523 0.041588 0.108008 0.0159257 0.0310212 0.0204544 0.0023398 0.0136614;
   (6, 4, 6) 0.286949 0.500682 0.00500227 0.0959527 0.0277399 0.055025 0.000454752 0.000454752 0.0277399;
   (5, 4, 6) 0.318865 0.252087 0.0851419 0.202003 0.135225 0.00166945 0.00166945 0.00166945 0.00166945;
   (1, 4, 6) 0.111111 0.111111 0.111111 0.111111 0.111111 0.111111 0.111111 0.111111 0.111111;
   (0, 4, 6) 0.111111 0.111111 0.111111 0.111111 0.111111 0.111111 0.111111 0.111111 0.111111;
   (2, 4, 6) 0.025641 0.794872 0.025641 0.025641 0.025641 0.025641 0.025641 0.025641 0.025641;
   (7, 4, 6) 0.186441 0.694915 0.0169492 0.0169492 0.0169492 0.0169492 0.0169492 0.0169492 0.0169492;
   (8, 4, 6) 0.111111 0.111111 0.111111 0.111111 0.111111 0.111111 0.111111 0.111111 0.111111;
   (3, 6, 6) 0.254284 0.501028 0.103496 0.0486635 0.0760795 0.00753941 0.00753941 0.000685401 0.000685401;
   (4, 6, 6) 0.443633 0.323142 0.0332103 0.144665 0.0301981 0.0098652 0.0098652 7.53069e-005 0.00534679;
   (6, 6, 6) 0.315461 0.467863 0.0438958 0.0625794 0.0384645 0.0279277 0.0160875 0.000445367 0.027276;
   (5, 6, 6) 0.292125 0.410529 0.0619953 0.111179 0.0304208 0.0383144 0.0261704 6.07201e-005 0.0292064;
   (1, 6, 6) 0.470109 0.160735 0.146778 0.121191 0.0723424 0.0234938 0.000232612 0.000232612 0.00488486;
   (0, 6, 6) 0.00169779 0.511036 0.188455 0.290323 0.00169779 0.00169779 0.00169779 0.00169779 0.00169779;
   (2, 6, 6) 0.328723 0.202766 0.150901 0.16572 0.0397629 0.0348234 0.0471721 0.000246975 0.0298839;
   (7, 6, 6) 0.384367 0.247984 0.0456079 0.157061 0.0529403 0.0133451 0.0368089 0.000146649 0.0617393;
   (8, 6, 6) 0.111111 0.111111 0.111111 0.111111 0.111111 0.111111 0.111111 0.111111 0.111111;
   (3, 5, 6) 0.0126582 0.772152 0.0126582 0.0126582 0.0126582 0.0126582 0.0126582 0.139241 0.0126582;
   (4, 5, 6) 0.598513 0.375465 0.00371747 0.00371747 0.00371747 0.00371747 0.00371747 0.00371747 0.00371747;
   (6, 5, 6) 0.445836 0.415185 0.0438742 0.0429985 0.028111 0.0193537 0.000963307 8.75733e-005 0.00359051;
   (5, 5, 6) 0.407721 0.397122 0.0424396 0.0420319 0.0510009 0.0424396 0.0057483 4.07681e-005 0.0114558;
   (1, 5, 6) 0.111111 0.111111 0.111111 0.111111 0.111111 0.111111 0.111111 0.111111 0.111111;
   (0, 5, 6) 0.111111 0.111111 0.111111 0.111111 0.111111 0.111111 0.111111 0.111111 0.111111;
   (2, 5, 6) 0.0526316 0.578947 0.0526316 0.0526316 0.0526316 0.0526316 0.0526316 0.0526316 0.0526316;
   (7, 5, 6) 0.338912 0.506276 0.0460251 0.0878661 0.0041841 0.0041841 0.0041841 0.0041841 0.0041841;
   (8, 5, 6) 0.111111 0.111111 0.111111 0.111111 0.111111 0.111111 0.111111 0.111111 0.111111;
   (3, 1, 6) 0.594203 0.15942 0.15942 0.0144928 0.0144928 0.0144928 0.0144928 0.0144928 0.0144928;
   (4, 1, 6) 0.111111 0.111111 0.111111 0.111111 0.111111 0.111111 0.111111 0.111111 0.111111;
   (6, 1, 6) 0.406637 0.149084 0.163943 0.0747895 0.02526 0.119366 0.030213 0.000495295 0.030213;
   (5, 1, 6) 0.705426 0.00775194 0.24031 0.00775194 0.00775194 0.00775194 0.00775194 0.00775194 0.00775194;
   (1, 1, 6) 0.306345 0.284232 0.187277 0.0273856 0.0716108 0.102228 0.000170097 0.00187107 0.0188808;
   (0, 1, 6) 0.348315 0.011236 0.011236 0.011236 0.011236 0.011236 0.011236 0.011236 0.573034;
   (2, 1, 6) 0.0126582 0.139241 0.518987 0.265823 0.0126582 0.0126582 0.0126582 0.0126582 0.0126582;
   (7, 1, 6) 0.111111 0.111111 0.111111 0.111111 0.111111 0.111111 0.111111 0.111111 0.111111;
   (8, 1, 6) 0.111111 0.111111 0.111111 0.111111 0.111111 0.111111 0.111111 0.111111 0.111111;
   (3, 2, 6) 0.111111 0.111111 0.111111 0.111111 0.111111 0.111111 0.111111 0.111111 0.111111;
   (4, 2, 6) 0.111111 0.111111 0.111111 0.111111 0.111111 0.111111 0.111111 0.111111 0.111111;
   (6, 2, 6) 0.488801 0.13307 0.225296 0.0671937 0.027668 0.027668 0.00131752 0.00131752 0.027668;
   (5, 2, 6) 0.111111 0.111111 0.111111 0.111111 0.111111 0.111111 0.111111 0.111111 0.111111;
   (1, 2, 6) 0.0526316 0.0526316 0.578947 0.0526316 0.0526316 0.0526316 0.0526316 0.0526316 0.0526316;
   (0, 2, 6) 0.111111 0.111111 0.111111 0.111111 0.111111 0.111111 0.111111 0.111111 0.111111;
   (2, 2, 6) 0.415722 0.262817 0.127901 0.0505487 0.0559453 0.0433531 0.0199676 0.000179888 0.0235654;
   (7, 2, 6) 0.111111 0.111111 0.111111 0.111111 0.111111 0.111111 0.111111 0.111111 0.111111;
   (8, 2, 6) 0.111111 0.111111 0.111111 0.111111 0.111111 0.111111 0.111111 0.111111 0.111111;
   (3, 0, 6) 0.884058 0.0144928 0.0144928 0.0144928 0.0144928 0.0144928 0.0144928 0.0144928 0.0144928;
   (4, 0, 6) 0.111111 0.111111 0.111111 0.111111 0.111111 0.111111 0.111111 0.111111 0.111111;
   (6, 0, 6) 0.100917 0.559633 0.00917431 0.284404 0.00917431 0.00917431 0.00917431 0.00917431 0.00917431;
   (5, 0, 6) 0.111111 0.111111 0.111111 0.111111 0.111111 0.111111 0.111111 0.111111 0.111111;
   (1, 0, 6) 0.879699 0.00250627 0.0776942 0.0275689 0.00250627 0.00250627 0.00250627 0.00250627 0.00250627;
   (0, 0, 6) 0.296928 0.342435 0.0125142 0.217292 0.069397 0.0580205 0.00113766 0.00113766 0.00113766;
   (2, 0, 6) 0.0780669 0.00371747 0.895911 0.00371747 0.00371747 0.00371747 0.00371747 0.00371747 0.00371747;
   (7, 0, 6) 0.578947 0.0526316 0.0526316 0.0526316 0.0526316 0.0526316 0.0526316 0.0526316 0.0526316;
   (8, 0, 6) 0.111111 0.111111 0.111111 0.111111 0.111111 0.111111 0.111111 0.111111 0.111111;
   (3, 7, 6) 0.111111 0.111111 0.111111 0.111111 0.111111 0.111111 0.111111 0.111111 0.111111;
   (4, 7, 6) 0.0502283 0.369863 0.00456621 0.415525 0.0958904 0.00456621 0.0502283 0.00456621 0.00456621;
   (6, 7, 6) 0.170856 0.551284 0.0915446 0.0861675 0.0727248 0.0122328 0.0149214 0.000134427 0.000134427;
   (5, 7, 6) 0.24245 0.259707 0.121657 0.0526316 0.00949094 0.0957722 0.164797 0.000862813 0.0526316;
   (1, 7, 6) 0.111111 0.111111 0.111111 0.111111 0.111111 0.111111 0.111111 0.111111 0.111111;
   (0, 7, 6) 0.111111 0.111111 0.111111 0.111111 0.111111 0.111111 0.111111 0.111111 0.111111;
   (2, 7, 6) 0.111111 0.111111 0.111111 0.111111 0.111111 0.111111 0.111111 0.111111 0.111111;
   (7, 7, 6) 0.108179 0.480085 0.0792813 0.203669 0.0566654 0.0353059 0.0189722 0.00263852 0.0152029;
   (8, 7, 6) 0.111111 0.111111 0.111111 0.111111 0.111111 0.111111 0.111111 0.111111 0.111111;
   (3, 8, 6) 0.111111 0.111111 0.111111 0.111111 0.111111 0.111111 0.111111 0.111111 0.111111;
   (4, 8, 6) 0.111111 0.111111 0.111111 0.111111 0.111111 0.111111 0.111111 0.111111 0.111111;
   (6, 8, 6) 0.111111 0.111111 0.111111 0.111111 0.111111 0.111111 0.111111 0.111111 0.111111;
   (5, 8, 6) 0.111111 0.111111 0.111111 0.111111 0.111111 0.111111 0.111111 0.111111 0.111111;
   (1, 8, 6) 0.111111 0.111111 0.111111 0.111111 0.111111 0.111111 0.111111 0.111111 0.111111;
   (0, 8, 6) 0.111111 0.111111 0.111111 0.111111 0.111111 0.111111 0.111111 0.111111 0.111111;
   (2, 8, 6) 0.111111 0.111111 0.111111 0.111111 0.111111 0.111111 0.111111 0.111111 0.111111;
   (7, 8, 6) 0.111111 0.111111 0.111111 0.111111 0.111111 0.111111 0.111111 0.111111 0.111111;
   (8, 8, 6) 0.111111 0.111111 0.111111 0.111111 0.111111 0.111111 0.111111 0.111111 0.111111;
   (3, 3, 5) 0.360047 0.377596 0.0236911 0.0119918 0.0353905 0.0324656 0.0704884 0.000292483 0.0880374;
   (4, 3, 5) 0.0204082 0.0204082 0.0204082 0.836735 0.0204082 0.0204082 0.0204082 0.0204082 0.0204082;
   (6, 3, 5) 0.111111 0.111111 0.111111 0.111111 0.111111 0.111111 0.111111 0.111111 0.111111;
   (5, 3, 5) 0.320293 0.418093 0.0757946 0.124694 0.0513447 0.00244499 0.00244499 0.00244499 0.00244499;
   (1, 3, 5) 0.111111 0.111111 0.111111 0.111111 0.111111 0.111111 0.111111 0.111111 0.111111;
   (0, 3, 5) 0.111111 0.111111 0.111111 0.111111 0.111111 0.111111 0.111111 0.111111 0.111111;
   (2, 3, 5) 0.111111 0.111111 0.111111 0.111111 0.111111 0.111111 0.111111 0.111111 0.111111;
   (7, 3, 5) 0.111111 0.111111 0.111111 0.111111 0.111111 0.111111 0.111111 0.111111 0.111111;
   (8, 3, 5) 0.111111 0.111111 0.111111 0.111111 0.111111 0.111111 0.111111 0.111111 0.111111;
   (3, 4, 5) 0.111111 0.111111 0.111111 0.111111 0.111111 0.111111 0.111111 0.111111 0.111111;
   (4, 4, 5) 0.366564 0.315776 0.0759726 0.158176 0.0147128 0.0367035 0.0136656 5.23588e-005 0.0183779;
   (6, 4, 5) 0.0022779 0.91344 0.070615 0.0022779 0.0022779 0.0022779 0.0022779 0.0022779 0.0022779;
   (5, 4, 5) 0.323607 0.334154 0.130251 0.077518 0.0195113 0.0915802 0.0177536 0.000175778 0.00544911;
   (1, 4, 5) 0.111111 0.111111 0.111111 0.111111 0.111111 0.111111 0.111111 0.111111 0.111111;
   (0, 4, 5) 0.111111 0.111111 0.111111 0.111111 0.111111 0.111111 0.111111 0.111111 0.111111;
   (2, 4, 5) 0.111111 0.111111 0.111111 0.111111 0.111111 0.111111 0.111111 0.111111 0.111111;
   (7, 4, 5) 0.0126582 0.898734 0.0126582 0.0126582 0.0126582 0.0126582 0.0126582 0.0126582 0.0126582;
   (8, 4, 5) 0.111111 0.111111 0.111111 0.111111 0.111111 0.111111 0.111111 0.111111 0.111111;
   (3, 6, 5) 0.111111 0.111111 0.111111 0.111111 0.111111 0.111111 0.111111 0.111111 0.111111;
   (4, 6, 5) 0.0441767 0.646586 0.124498 0.0843373 0.0843373 0.00401606 0.00401606 0.00401606 0.00401606;
   (6, 6, 5) 0.131219 0.331105 0.112302 0.210669 0.125544 0.0454631 0.021502 6.30557e-005 0.0221325;
   (5, 6, 5) 0.41445 0.320311 0.0826077 0.0661332 0.0378913 0.0731937 0.000235349 0.000235349 0.00494234;
   (1, 6, 5) 0.0169492 0.694915 0.0169492 0.186441 0.0169492 0.0169492 0.0169492 0.0169492 0.0169492;
   (0, 6, 5) 0.111111 0.111111 0.111111 0.111111 0.111111 0.111111 0.111111 0.111111 0.111111;
   (2, 6, 5) 0.0344828 0.0344828 0.0344828 0.724138 0.0344828 0.0344828 0.0344828 0.0344828 0.0344828;
   (7, 6, 5) 0.304348 0.337793 0.00334448 0.00334448 0.00334448 0.0702341 0.00334448 0.00334448 0.270903;
   (8, 6, 5) 0.111111 0.111111 0.111111 0.111111 0.111111 0.111111 0.111111 0.111111 0.111111;
   (3, 5, 5) 0.405252 0.234918 0.0361959 0.0503903 0.107168 0.00780696 0.0432931 0.000709723 0.114265;
   (4, 5, 5) 0.30789 0.395374 0.0437968 0.0908196 0.0574662 0.0394226 0.0427033 5.46777e-005 0.0224725;
   (6, 5, 5) 0.261686 0.420379 0.0542855 0.103779 0.0440726 0.0621416 0.0205044 7.85608e-005 0.0330741;
   (5, 5, 5) 0.320825 0.347439 0.0805766 0.102133 0.0366213 0.0457737 0.0334903 0.000252893 0.0328882;
   (1, 5, 5) 0.217686 0.307755 0.181425 0.253948 0.0106445 0.00947479 0.0012867 0.000116973 0.0176629;
   (0, 5, 5) 0.119975 0.359313 0.107702 0.178276 0.138386 0.0831543 0.00337527 0.000306843 0.00951212;
   (2, 5, 5) 0.391322 0.187615 0.14891 0.150947 0.0165003 0.0409452 0.0103891 0.000203707 0.0531677;
   (7, 5, 5) 0.343192 0.308277 0.0926268 0.113165 0.037174 0.0515506 0.0104744 0.000205381 0.0433354;
   (8, 5, 5) 0.111111 0.111111 0.111111 0.111111 0.111111 0.111111 0.111111 0.111111 0.111111;
   (3, 1, 5) 0.899441 0.0614525 0.00558659 0.00558659 0.00558659 0.00558659 0.00558659 0.00558659 0.00558659;
   (4, 1, 5) 0.111111 0.111111 0.111111 0.111111 0.111111 0.111111 0.111111 0.111111 0.111111;
   (6, 1, 5) 0.836735 0.0204082 0.0204082 0.0204082 0.0204082 0.0204082 0.0204082 0.0204082 0.0204082;
   (5, 1, 5) 0.353712 0.0480349 0.179039 0.00436681 0.266376 0.00436681 0.00436681 0.00436681 0.135371;
   (1, 1, 5) 0.108662 0.0967961 0.408713 0.123919 0.0340736 0.191727 0.020512 0.00016952 0.0154263;
   (0, 1, 5) 0.111111 0.111111 0.111111 0.111111 0.111111 0.111111 0.111111 0.111111 0.111111;
   (2, 1, 5) 0.280101 0.026616 0.381496 0.12801 0.0139417 0.166033 0.00126743 0.00126743 0.00126743;
   (7, 1, 5) 0.111111 0.111111 0.111111 0.111111 0.111111 0.111111 0.111111 0.111111 0.111111;
   (8, 1, 5) 0.111111 0.111111 0.111111 0.111111 0.111111 0.111111 0.111111 0.111111 0.111111;
   (3, 2, 5) 0.0204082 0.0204082 0.836735 0.0204082 0.0204082 0.0204082 0.0204082 0.0204082 0.0204082;
   (4, 2, 5) 0.680672 0.00840336 0.00840336 0.260504 0.00840336 0.00840336 0.00840336 0.00840336 0.00840336;
   (6, 2, 5) 0.111111 0.111111 0.111111 0.111111 0.111111 0.111111 0.111111 0.111111 0.111111;
   (5, 2, 5) 0.378453 0.221364 0.204346 0.0616573 0.0315486 0.0642754 0.0236942 0.000130907 0.0145307;
   (1, 2, 5) 0.836735 0.0204082 0.0204082 0.0204082 0.0204082 0.0204082 0.0204082 0.0204082 0.0204082;
   (0, 2, 5) 0.578947 0.0526316 0.0526316 0.0526316 0.0526316 0.0526316 0.0526316 0.0526316 0.0526316;
   (2, 2, 5) 0.196989 0.15212 0.292517 0.0811984 0.042119 0.118831 0.101462 0.000144739 0.0146186;
   (7, 2, 5) 0.111111 0.111111 0.111111 0.111111 0.111111 0.111111 0.111111 0.111111 0.111111;
   (8, 2, 5) 0.111111 0.111111 0.111111 0.111111 0.111111 0.111111 0.111111 0.111111 0.111111;
   (3, 0, 5) 0.0526316 0.0526316 0.0526316 0.0526316 0.578947 0.0526316 0.0526316 0.0526316 0.0526316;
   (4, 0, 5) 0.111111 0.111111 0.111111 0.111111 0.111111 0.111111 0.111111 0.111111 0.111111;
   (6, 0, 5) 0.111111 0.111111 0.111111 0.111111 0.111111 0.111111 0.111111 0.111111 0.111111;
   (5, 0, 5) 0.791045 0.0021322 0.0021322 0.151386 0.0021322 0.0447761 0.0021322 0.0021322 0.0021322;
   (1, 0, 5) 0.111111 0.010101 0.515152 0.212121 0.111111 0.010101 0.010101 0.010101 0.010101;
   (0, 0, 5) 0.214566 0.10855 0.11316 0.288315 0.101636 0.103941 0.0255819 0.000230468 0.0440194;
   (2, 0, 5) 0.598173 0.00456621 0.369863 0.00456621 0.00456621 0.00456621 0.00456621 0.00456621 0.00456621;
   (7, 0, 5) 0.836735 0.0204082 0.0204082 0.0204082 0.0204082 0.0204082 0.0204082 0.0204082 0.0204082;
   (8, 0, 5) 0.111111 0.111111 0.111111 0.111111 0.111111 0.111111 0.111111 0.111111 0.111111;
   (3, 7, 5) 0.111111 0.111111 0.111111 0.111111 0.111111 0.111111 0.111111 0.111111 0.111111;
   (4, 7, 5) 0.011236 0.011236 0.685393 0.235955 0.011236 0.011236 0.011236 0.011236 0.011236;
   (6, 7, 5) 0.0780669 0.821561 0.00371747 0.00371747 0.00371747 0.0780669 0.00371747 0.00371747 0.00371747;
   (5, 7, 5) 0.217938 0.467979 0.146959 0.10663 0.0211324 0.0340377 0.000161316 0.000161316 0.00500081;
   (1, 7, 5) 0.111111 0.111111 0.111111 0.111111 0.111111 0.111111 0.111111 0.111111 0.111111;
   (0, 7, 5) 0.111111 0.111111 0.111111 0.111111 0.111111 0.111111 0.111111 0.111111 0.111111;
   (2, 7, 5) 0.111111 0.111111 0.111111 0.111111 0.111111 0.111111 0.111111 0.111111 0.111111;
   (7, 7, 5) 0.0778557 0.373366 0.0835385 0.238871 0.0456526 0.0759614 0.0740671 0.00018943 0.0304982;
   (8, 7, 5) 0.111111 0.111111 0.111111 0.111111 0.111111 0.111111 0.111111 0.111111 0.111111;
   (3, 8, 5) 0.111111 0.111111 0.111111 0.111111 0.111111 0.111111 0.111111 0.111111 0.111111;
   (4, 8, 5) 0.111111 0.111111 0.111111 0.111111 0.111111 0.111111 0.111111 0.111111 0.111111;
   (6, 8, 5) 0.111111 0.111111 0.111111 0.111111 0.111111 0.111111 0.111111 0.111111 0.111111;
   (5, 8, 5) 0.111111 0.111111 0.111111 0.111111 0.111111 0.111111 0.111111 0.111111 0.111111;
   (1, 8, 5) 0.111111 0.111111 0.111111 0.111111 0.111111 0.111111 0.111111 0.111111 0.111111;
   (0, 8, 5) 0.111111 0.111111 0.111111 0.111111 0.111111 0.111111 0.111111 0.111111 0.111111;
   (2, 8, 5) 0.111111 0.111111 0.111111 0.111111 0.111111 0.111111 0.111111 0.111111 0.111111;
   (7, 8, 5) 0.111111 0.111111 0.111111 0.111111 0.111111 0.111111 0.111111 0.111111 0.111111;
   (8, 8, 5) 0.0526316 0.0526316 0.0526316 0.578947 0.0526316 0.0526316 0.0526316 0.0526316 0.0526316;
   (3, 3, 2) 0.416915 0.22395 0.133532 0.123608 0.0376006 0.0398059 0.000110266 0.000110266 0.0243687;
   (4, 3, 2) 0.0526316 0.0526316 0.0526316 0.0526316 0.578947 0.0526316 0.0526316 0.0526316 0.0526316;
   (6, 3, 2) 0.111111 0.111111 0.111111 0.111111 0.111111 0.111111 0.111111 0.111111 0.111111;
   (5, 3, 2) 0.025641 0.025641 0.794872 0.025641 0.025641 0.025641 0.025641 0.025641 0.025641;
   (1, 3, 2) 0.252408 0.32948 0.0597303 0.290944 0.0404624 0.00192678 0.00192678 0.00192678 0.0211946;
   (0, 3, 2) 0.208054 0.00671141 0.14094 0.342282 0.00671141 0.275168 0.00671141 0.00671141 0.00671141;
   (2, 3, 2) 0.185664 0.300271 0.112732 0.164826 0.0460513 0.0877266 0.0460513 0.000208377 0.0564701;
   (7, 3, 2) 0.111111 0.111111 0.111111 0.111111 0.111111 0.111111 0.111111 0.111111 0.111111;
   (8, 3, 2) 0.111111 0.111111 0.111111 0.111111 0.111111 0.111111 0.111111 0.111111 0.111111;
   (3, 4, 2) 0.724138 0.0344828 0.0344828 0.0344828 0.0344828 0.0344828 0.0344828 0.0344828 0.0344828;
   (4, 4, 2) 0.409602 0.205312 0.195097 0.072523 0.00102145 0.0827375 0.00102145 0.00102145 0.031665;
   (6, 4, 2) 0.0204082 0.0204082 0.0204082 0.0204082 0.22449 0.0204082 0.632653 0.0204082 0.0204082;
   (5, 4, 2) 0.00323625 0.165049 0.00323625 0.165049 0.100324 0.00323625 0.553398 0.00323625 0.00323625;
   (1, 4, 2) 0.0041841 0.0041841 0.0041841 0.0041841 0.882845 0.0041841 0.0878661 0.0041841 0.0041841;
   (0, 4, 2) 0.111111 0.111111 0.111111 0.111111 0.111111 0.111111 0.111111 0.111111 0.111111;
   (2, 4, 2) 0.00502513 0.00502513 0.959799 0.00502513 0.00502513 0.00502513 0.00502513 0.00502513 0.00502513;
   (7, 4, 2) 0.111111 0.111111 0.111111 0.111111 0.111111 0.111111 0.111111 0.111111 0.111111;
   (8, 4, 2) 0.111111 0.111111 0.111111 0.111111 0.111111 0.111111 0.111111 0.111111 0.111111;
   (3, 6, 2) 0.111111 0.111111 0.111111 0.111111 0.111111 0.111111 0.111111 0.111111 0.111111;
   (4, 6, 2) 0.00671141 0.946309 0.00671141 0.00671141 0.00671141 0.00671141 0.00671141 0.00671141 0.00671141;
   (6, 6, 2) 0.473858 0.214492 0.0827501 0.152738 0.0209963 0.0251132 0.000411692 0.000411692 0.0292301;
   (5, 6, 2) 0.493384 0.379962 0.0964083 0.00189036 0.00189036 0.00189036 0.00189036 0.00189036 0.020794;
   (1, 6, 2) 0.111111 0.111111 0.111111 0.111111 0.111111 0.111111 0.111111 0.111111 0.111111;
   (0, 6, 2) 0.111111 0.111111 0.111111 0.111111 0.111111 0.111111 0.111111 0.111111 0.111111;
   (2, 6, 2) 0.121495 0.348465 0.0547397 0.0280374 0.134846 0.201602 0.108144 0.00133511 0.00133511;
   (7, 6, 2) 0.111111 0.111111 0.111111 0.111111 0.111111 0.111111 0.111111 0.111111 0.111111;
   (8, 6, 2) 0.111111 0.111111 0.111111 0.111111 0.111111 0.111111 0.111111 0.111111 0.111111;
   (3, 5, 2) 0.111111 0.111111 0.111111 0.111111 0.111111 0.111111 0.111111 0.111111 0.111111;
   (4, 5, 2) 0.111111 0.111111 0.111111 0.111111 0.111111 0.111111 0.111111 0.111111 0.111111;
   (6, 5, 2) 0.578947 0.0526316 0.0526316 0.0526316 0.0526316 0.0526316 0.0526316 0.0526316 0.0526316;
   (5, 5, 2) 0.159636 0.514384 0.159636 0.0552989 0.0239976 0.0120733 0.019526 0.0478462 0.00760173;
   (1, 5, 2) 0.919192 0.010101 0.010101 0.010101 0.010101 0.010101 0.010101 0.010101 0.010101;
   (0, 5, 2) 0.864407 0.0169492 0.0169492 0.0169492 0.0169492 0.0169492 0.0169492 0.0169492 0.0169492;
   (2, 5, 2) 0.140847 0.665392 0.0322679 0.0873222 0.0460315 0.0123872 0.0154458 0.000152929 0.000152929;
   (7, 5, 2) 0.111111 0.111111 0.111111 0.111111 0.111111 0.111111 0.111111 0.111111 0.111111;
   (8, 5, 2) 0.111111 0.111111 0.111111 0.111111 0.111111 0.111111 0.111111 0.111111 0.111111;
   (3, 1, 2) 0.0204082 0.836735 0.0204082 0.0204082 0.0204082 0.0204082 0.0204082 0.0204082 0.0204082;
   (4, 1, 2) 0.111111 0.111111 0.111111 0.111111 0.111111 0.111111 0.111111 0.111111 0.111111;
   (6, 1, 2) 0.0144928 0.0144928 0.304348 0.0144928 0.0144928 0.15942 0.0144928 0.0144928 0.449275;
   (5, 1, 2) 0.111111 0.111111 0.111111 0.111111 0.111111 0.111111 0.111111 0.111111 0.111111;
   (1, 1, 2) 0.463694 0.151928 0.170841 0.0877414 0.0321508 0.0590865 0.0109462 5.73099e-005 0.0235544;
   (0, 1, 2) 0.100917 0.00917431 0.46789 0.00917431 0.376147 0.00917431 0.00917431 0.00917431 0.00917431;
   (2, 1, 2) 0.314923 0.261983 0.0859923 0.137502 0.0301903 0.0430677 0.0630992 0.000143082 0.0630992;
   (7, 1, 2) 0.111111 0.111111 0.111111 0.111111 0.111111 0.111111 0.111111 0.111111 0.111111;
   (8, 1, 2) 0.111111 0.111111 0.111111 0.111111 0.111111 0.111111 0.111111 0.111111 0.111111;
   (3, 2, 2) 0.466311 0.178821 0.162171 0.0533911 0.017871 0.0500611 0.015651 0.000111 0.0556111;
   (4, 2, 2) 0.352406 0.222367 0.144343 0.105332 0.105332 0.0663199 0.00130039 0.00130039 0.00130039;
   (6, 2, 2) 0.327222 0.227581 0.223595 0.0482264 0.111997 0.0282981 0.0322838 0.000398565 0.000398565;
   (5, 2, 2) 0.0888373 0.363157 0.257649 0.156362 0.00865161 0.00865161 0.0888373 0.00443131 0.0234227;
   (1, 2, 2) 0.577478 0.174586 0.0698591 0.0460389 0.0480923 0.0452175 0.0209865 4.10694e-005 0.0177009;
   (0, 2, 2) 0.212602 0.281319 0.0920816 0.137541 0.0730521 0.08891 0.102654 0.000105719 0.0117349;
   (2, 2, 2) 0.381454 0.194984 0.150553 0.101091 0.0404915 0.0681565 0.0232458 1.19762e-005 0.0400125;
   (7, 2, 2) 0.270553 0.240658 0.180867 0.180867 0.106129 0.00149477 0.0164425 0.00149477 0.00149477;
   (8, 2, 2) 0.111111 0.111111 0.111111 0.111111 0.111111 0.111111 0.111111 0.111111 0.111111;
   (3, 0, 2) 0.705426 0.00775194 0.00775194 0.24031 0.00775194 0.00775194 0.00775194 0.00775194 0.00775194;
   (4, 0, 2) 0.111111 0.111111 0.111111 0.111111 0.111111 0.111111 0.111111 0.111111 0.111111;
   (6, 0, 2) 0.111111 0.111111 0.111111 0.111111 0.111111 0.111111 0.111111 0.111111 0.111111;
   (5, 0, 2) 0.111111 0.111111 0.111111 0.111111 0.111111 0.111111 0.111111 0.111111 0.111111;
   (1, 0, 2) 0.375291 0.002331 0.002331 0.188811 0.258741 0.165501 0.002331 0.002331 0.002331;
   (0, 0, 2) 0.374494 0.157947 0.133152 0.179436 0.0323167 0.0876932 0.0248781 8.26515e-005 0.0100008;
   (2, 0, 2) 0.281331 0.377372 0.136097 0.0260014 0.0142891 0.0681658 0.018974 0.000234247 0.0775357;
   (7, 0, 2) 0.111111 0.111111 0.111111 0.111111 0.111111 0.111111 0.111111 0.111111 0.111111;
   (8, 0, 2) 0.111111 0.111111 0.111111 0.111111 0.111111 0.111111 0.111111 0.111111 0.111111;
   (3, 7, 2) 0.111111 0.111111 0.111111 0.111111 0.111111 0.111111 0.111111 0.111111 0.111111;
   (4, 7, 2) 0.111111 0.111111 0.111111 0.111111 0.111111 0.111111 0.111111 0.111111 0.111111;
   (6, 7, 2) 0.578947 0.0526316 0.0526316 0.0526316 0.0526316 0.0526316 0.0526316 0.0526316 0.0526316;
   (5, 7, 2) 0.0344828 0.0344828 0.0344828 0.724138 0.0344828 0.0344828 0.0344828 0.0344828 0.0344828;
   (1, 7, 2) 0.111111 0.111111 0.111111 0.111111 0.111111 0.111111 0.111111 0.111111 0.111111;
   (0, 7, 2) 0.111111 0.111111 0.111111 0.111111 0.111111 0.111111 0.111111 0.111111 0.111111;
   (2, 7, 2) 0.111111 0.111111 0.111111 0.111111 0.111111 0.111111 0.111111 0.111111 0.111111;
   (7, 7, 2) 0.263895 0.309181 0.144504 0.119802 0.086867 0.0456978 0.0292301 0.000411692 0.000411692;
   (8, 7, 2) 0.111111 0.111111 0.111111 0.111111 0.111111 0.111111 0.111111 0.111111 0.111111;
   (3, 8, 2) 0.111111 0.111111 0.111111 0.111111 0.111111 0.111111 0.111111 0.111111 0.111111;
   (4, 8, 2) 0.111111 0.111111 0.111111 0.111111 0.111111 0.111111 0.111111 0.111111 0.111111;
   (6, 8, 2) 0.111111 0.111111 0.111111 0.111111 0.111111 0.111111 0.111111 0.111111 0.111111;
   (5, 8, 2) 0.111111 0.111111 0.111111 0.111111 0.111111 0.111111 0.111111 0.111111 0.111111;
   (1, 8, 2) 0.111111 0.111111 0.111111 0.111111 0.111111 0.111111 0.111111 0.111111 0.111111;
   (0, 8, 2) 0.111111 0.111111 0.111111 0.111111 0.111111 0.111111 0.111111 0.111111 0.111111;
   (2, 8, 2) 0.111111 0.111111 0.111111 0.111111 0.111111 0.111111 0.111111 0.111111 0.111111;
   (7, 8, 2) 0.111111 0.111111 0.111111 0.111111 0.111111 0.111111 0.111111 0.111111 0.111111;
   (8, 8, 2) 0.111111 0.111111 0.111111 0.111111 0.111111 0.111111 0.111111 0.111111 0.111111;
   (3, 3, 0) 0.345413 0.239835 0.194179 0.0457983 0.0158368 0.0928806 0.0529319 0.000142674 0.0129833;
   (4, 3, 0) 0.70441 0.0011919 0.287247 0.0011919 0.0011919 0.0011919 0.0011919 0.0011919 0.0011919;
   (6, 3, 0) 0.111111 0.111111 0.111111 0.111111 0.111111 0.111111 0.111111 0.111111 0.111111;
   (5, 3, 0) 0.111111 0.111111 0.111111 0.111111 0.111111 0.111111 0.111111 0.111111 0.111111;
   (1, 3, 0) 0.00502513 0.658291 0.00502513 0.00502513 0.306533 0.00502513 0.00502513 0.00502513 0.00502513;
   (0, 3, 0) 0.238237 0.000495295 0.173848 0.0599307 0.213472 0.144131 0.154037 0.000495295 0.0153541;
   (2, 3, 0) 0.00478469 0.291866 0.00478469 0.00478469 0.00478469 0.100478 0.578947 0.00478469 0.00478469;
   (7, 3, 0) 0.111111 0.111111 0.111111 0.111111 0.111111 0.111111 0.111111 0.111111 0.111111;
   (8, 3, 0) 0.111111 0.111111 0.111111 0.111111 0.111111 0.111111 0.111111 0.111111 0.111111;
   (3, 4, 0) 0.111111 0.111111 0.111111 0.111111 0.111111 0.111111 0.111111 0.111111 0.111111;
   (4, 4, 0) 0.578372 0.128301 0.112674 0.0907954 0.0360994 0.0298484 0.0189092 0.00484451 0.000156274;
   (6, 4, 0) 0.111111 0.111111 0.111111 0.111111 0.111111 0.111111 0.111111 0.111111 0.111111;
   (5, 4, 0) 0.111111 0.111111 0.111111 0.111111 0.111111 0.111111 0.111111 0.111111 0.111111;
   (1, 4, 0) 0.111111 0.111111 0.111111 0.111111 0.111111 0.111111 0.111111 0.111111 0.111111;
   (0, 4, 0) 0.192661 0.192661 0.100917 0.284404 0.00917431 0.00917431 0.192661 0.00917431 0.00917431;
   (2, 4, 0) 0.111111 0.111111 0.111111 0.111111 0.111111 0.111111 0.111111 0.111111 0.111111;
   (7, 4, 0) 0.0204082 0.0204082 0.0204082 0.0204082 0.836735 0.0204082 0.0204082 0.0204082 0.0204082;
   (8, 4, 0) 0.111111 0.111111 0.111111 0.111111 0.111111 0.111111 0.111111 0.111111 0.111111;
   (3, 6, 0) 0.111111 0.111111 0.111111 0.111111 0.111111 0.111111 0.111111 0.111111 0.111111;
   (4, 6, 0) 0.111111 0.111111 0.111111 0.111111 0.111111 0.111111 0.111111 0.111111 0.111111;
   (6, 6, 0) 0.495767 0.379743 0.022264 0.0442145 0.0567576 0.000313578 0.000313578 0.000313578 0.000313578;
   (5, 6, 0) 0.111111 0.111111 0.111111 0.111111 0.111111 0.111111 0.111111 0.111111 0.111111;
   (1, 6, 0) 0.0031348 0.347962 0.0031348 0.630094 0.0031348 0.0031348 0.0031348 0.0031348 0.0031348;
   (0, 6, 0) 0.489089 0.14249 0.116816 0.0012837 0.181001 0.0654685 0.0012837 0.0012837 0.0012837;
   (2, 6, 0) 0.0204082 0.0204082 0.22449 0.632653 0.0204082 0.0204082 0.0204082 0.0204082 0.0204082;
   (7, 6, 0) 0.724138 0.0344828 0.0344828 0.0344828 0.0344828 0.0344828 0.0344828 0.0344828 0.0344828;
   (8, 6, 0) 0.111111 0.111111 0.111111 0.111111 0.111111 0.111111 0.111111 0.111111 0.111111;
   (3, 5, 0) 0.0526316 0.578947 0.0526316 0.0526316 0.0526316 0.0526316 0.0526316 0.0526316 0.0526316;
   (4, 5, 0) 0.111111 0.111111 0.111111 0.111111 0.111111 0.111111 0.111111 0.111111 0.111111;
   (6, 5, 0) 0.0526316 0.0526316 0.578947 0.0526316 0.0526316 0.0526316 0.0526316 0.0526316 0.0526316;
   (5, 5, 0) 0.331634 0.201019 0.242434 0.134119 0.0544759 0.0226187 0.0130615 0.000318573 0.000318573;
   (1, 5, 0) 0.111111 0.111111 0.111111 0.111111 0.111111 0.111111 0.111111 0.111111 0.111111;
   (0, 5, 0) 0.0041841 0.422594 0.548117 0.0041841 0.0041841 0.0041841 0.0041841 0.0041841 0.0041841;
   (2, 5, 0) 0.0126582 0.0126582 0.518987 0.139241 0.265823 0.0126582 0.0126582 0.0126582 0.0126582;
   (7, 5, 0) 0.00775194 0.00775194 0.00775194 0.24031 0.705426 0.00775194 0.00775194 0.00775194 0.00775194;
   (8, 5, 0) 0.111111 0.111111 0.111111 0.111111 0.111111 0.111111 0.111111 0.111111 0.111111;
   (3, 1, 0) 0.512605 0.00840336 0.260504 0.092437 0.00840336 0.092437 0.00840336 0.00840336 0.00840336;
   (4, 1, 0) 0.111111 0.111111 0.111111 0.111111 0.111111 0.111111 0.111111 0.111111 0.111111;
   (6, 1, 0) 0.594203 0.304348 0.0144928 0.0144928 0.0144928 0.0144928 0.0144928 0.0144928 0.0144928;
   (5, 1, 0) 0.578947 0.0526316 0.0526316 0.0526316 0.0526316 0.0526316 0.0526316 0.0526316 0.0526316;
   (1, 1, 0) 0.436667 0.320935 0.0663261 0.0575465 0.0256206 0.0575465 0.0208317 7.98148e-005 0.0144465;
   (0, 1, 0) 0.612223 0.201264 0.159115 0.00105374 0.00105374 0.0221286 0.00105374 0.00105374 0.00105374;
   (2, 1, 0) 0.119691 0.274131 0.0810811 0.158301 0.351351 0.003861 0.003861 0.003861 0.003861;
   (7, 1, 0) 0.111111 0.111111 0.111111 0.111111 0.111111 0.111111 0.111111 0.111111 0.111111;
   (8, 1, 0) 0.111111 0.111111 0.111111 0.111111 0.111111 0.111111 0.111111 0.111111 0.111111;
   (3, 2, 0) 0.386749 0.0169492 0.55624 0.00154083 0.0169492 0.0169492 0.00154083 0.00154083 0.00154083;
   (4, 2, 0) 0.919192 0.010101 0.010101 0.010101 0.010101 0.010101 0.010101 0.010101 0.010101;
   (6, 2, 0) 0.111111 0.111111 0.111111 0.111111 0.111111 0.111111 0.111111 0.111111 0.111111;
   (5, 2, 0) 0.836735 0.0204082 0.0204082 0.0204082 0.0204082 0.0204082 0.0204082 0.0204082 0.0204082;
   (1, 2, 0) 0.111111 0.111111 0.111111 0.111111 0.111111 0.111111 0.111111 0.111111 0.111111;
   (0, 2, 0) 0.1645 0.113624 0.209723 0.124929 0.181458 0.085359 0.119276 0.000565291 0.000565291;
   (2, 2, 0) 0.375119 0.37167 0.0552634 0.0552634 0.0397448 0.0354341 0.0440555 0.0018105 0.0216398;
   (7, 2, 0) 0.111111 0.111111 0.111111 0.111111 0.111111 0.111111 0.111111 0.111111 0.111111;
   (8, 2, 0) 0.111111 0.111111 0.111111 0.111111 0.111111 0.111111 0.111111 0.111111 0.111111;
   (3, 0, 0) 0.246625 0.299448 0.126893 0.116328 0.0611574 0.0764174 0.0494189 0.000117385 0.0235943;
   (4, 0, 0) 0.255276 0.356212 0.119471 0.0772619 0.0846027 0.0515691 0.0497339 0.00201872 0.00385392;
   (6, 0, 0) 0.313567 0.595046 0.0471008 0.0227059 0.0114468 0.00957028 0.000187652 0.000187652 0.000187652;
   (5, 0, 0) 0.246956 0.198246 0.368729 0.0310115 0.024517 0.0764735 0.0504952 0.000162364 0.00340964;
   (1, 0, 0) 0.360447 0.277203 0.0928767 0.0667142 0.0631466 0.0667142 0.017957 0.00011892 0.0548222;
   (0, 0, 0) 0.446452 0.139597 0.141271 0.0677449 0.0492023 0.081008 0.0457255 1.28768e-005 0.0289857;
   (2, 0, 0) 0.227069 0.197174 0.137383 0.138742 0.05585 0.16456 0.0259546 0.000135888 0.0531322;
   (7, 0, 0) 0.276938 0.405597 0.109682 0.0775169 0.0485687 0.0421357 0.0389193 0.000321647 0.000321647;
   (8, 0, 0) 0.111111 0.111111 0.111111 0.111111 0.111111 0.111111 0.111111 0.111111 0.111111;
   (3, 7, 0) 0.111111 0.111111 0.111111 0.111111 0.111111 0.111111 0.111111 0.111111 0.111111;
   (4, 7, 0) 0.111111 0.111111 0.111111 0.111111 0.111111 0.111111 0.111111 0.111111 0.111111;
   (6, 7, 0) 0.0526316 0.0526316 0.578947 0.0526316 0.0526316 0.0526316 0.0526316 0.0526316 0.0526316;
   (5, 7, 0) 0.0344828 0.0344828 0.724138 0.0344828 0.0344828 0.0344828 0.0344828 0.0344828 0.0344828;
   (1, 7, 0) 0.596639 0.00840336 0.344538 0.00840336 0.00840336 0.00840336 0.00840336 0.00840336 0.00840336;
   (0, 7, 0) 0.49505 0.184198 0.0842816 0.10741 0.0528263 0.0204459 0.0315478 9.25155e-005 0.0241465;
   (2, 7, 0) 0.111111 0.111111 0.111111 0.111111 0.111111 0.111111 0.111111 0.111111 0.111111;
   (7, 7, 0) 0.583448 0.250573 0.0719194 0.0734463 0.00778745 0.000152695 0.0123683 0.000152695 0.000152695;
   (8, 7, 0) 0.111111 0.111111 0.111111 0.111111 0.111111 0.111111 0.111111 0.111111 0.111111;
   (3, 8, 0) 0.111111 0.111111 0.111111 0.111111 0.111111 0.111111 0.111111 0.111111 0.111111;
   (4, 8, 0) 0.111111 0.111111 0.111111 0.111111 0.111111 0.111111 0.111111 0.111111 0.111111;
   (6, 8, 0) 0.111111 0.111111 0.111111 0.111111 0.111111 0.111111 0.111111 0.111111 0.111111;
   (5, 8, 0) 0.111111 0.111111 0.111111 0.111111 0.111111 0.111111 0.111111 0.111111 0.111111;
   (1, 8, 0) 0.111111 0.111111 0.111111 0.111111 0.111111 0.111111 0.111111 0.111111 0.111111;
   (0, 8, 0) 0.111111 0.111111 0.111111 0.111111 0.111111 0.111111 0.111111 0.111111 0.111111;
   (2, 8, 0) 0.111111 0.111111 0.111111 0.111111 0.111111 0.111111 0.111111 0.111111 0.111111;
   (7, 8, 0) 0.111111 0.111111 0.111111 0.111111 0.111111 0.111111 0.111111 0.111111 0.111111;
   (8, 8, 0) 0.111111 0.111111 0.111111 0.111111 0.111111 0.111111 0.111111 0.111111 0.111111;
   (3, 3, 1) 0.408074 0.306794 0.0676607 0.0746941 0.007174 0.0606274 0.0479674 0.000140667 0.0268674;
   (4, 3, 1) 0.111111 0.111111 0.111111 0.111111 0.111111 0.111111 0.111111 0.111111 0.111111;
   (6, 3, 1) 0.111111 0.111111 0.111111 0.111111 0.111111 0.111111 0.111111 0.111111 0.111111;
   (5, 3, 1) 0.355932 0.0169492 0.525424 0.0169492 0.0169492 0.0169492 0.0169492 0.0169492 0.0169492;
   (1, 3, 1) 0.275135 0.221187 0.118195 0.186856 0.0642472 0.0495341 0.0691515 0.000490437 0.0152035;
   (0, 3, 1) 0.00436681 0.266376 0.222707 0.0917031 0.0917031 0.310044 0.00436681 0.00436681 0.00436681;
   (2, 3, 1) 0.435407 0.483254 0.0526316 0.00478469 0.00478469 0.00478469 0.00478469 0.00478469 0.00478469;
   (7, 3, 1) 0.111111 0.111111 0.111111 0.111111 0.111111 0.111111 0.111111 0.111111 0.111111;
   (8, 3, 1) 0.111111 0.111111 0.111111 0.111111 0.111111 0.111111 0.111111 0.111111 0.111111;
   (3, 4, 1) 0.111111 0.111111 0.111111 0.111111 0.111111 0.111111 0.111111 0.111111 0.111111;
   (4, 4, 1) 0.393012 0.397579 0.0847225 0.0276319 0.00707924 0.0801553 0.00707924 0.000228363 0.00251199;
   (6, 4, 1) 0.00358423 0.00358423 0.00358423 0.00358423 0.362007 0.00358423 0.612903 0.00358423 0.00358423;
   (5, 4, 1) 0.111111 0.111111 0.111111 0.111111 0.111111 0.111111 0.111111 0.111111 0.111111;
   (1, 4, 1) 0.00478469 0.866029 0.00478469 0.00478469 0.00478469 0.100478 0.00478469 0.00478469 0.00478469;
   (0, 4, 1) 0.111111 0.111111 0.111111 0.111111 0.111111 0.111111 0.111111 0.111111 0.111111;
   (2, 4, 1) 0.0144928 0.884058 0.0144928 0.0144928 0.0144928 0.0144928 0.0144928 0.0144928 0.0144928;
   (7, 4, 1) 0.0526316 0.0526316 0.0526316 0.0526316 0.578947 0.0526316 0.0526316 0.0526316 0.0526316;
   (8, 4, 1) 0.111111 0.111111 0.111111 0.111111 0.111111 0.111111 0.111111 0.111111 0.111111;
   (3, 6, 1) 0.111111 0.111111 0.111111 0.111111 0.111111 0.111111 0.111111 0.111111 0.111111;
   (4, 6, 1) 0.111111 0.111111 0.111111 0.111111 0.111111 0.111111 0.111111 0.111111 0.111111;
   (6, 6, 1) 0.674428 0.1885 0.0427212 0.010326 0.00627657 0.0265236 0.0184248 0.00020247 0.0325977;
   (5, 6, 1) 0.111111 0.111111 0.111111 0.111111 0.111111 0.111111 0.111111 0.111111 0.111111;
   (1, 6, 1) 0.448371 0.176177 0.0425771 0.143713 0.0663004 0.0837807 0.0263454 0.00012486 0.0126108;
   (0, 6, 1) 0.794872 0.025641 0.025641 0.025641 0.025641 0.025641 0.025641 0.025641 0.025641;
   (2, 6, 1) 0.282051 0.025641 0.538462 0.025641 0.025641 0.025641 0.025641 0.025641 0.025641;
   (7, 6, 1) 0.111111 0.111111 0.111111 0.111111 0.111111 0.111111 0.111111 0.111111 0.111111;
   (8, 6, 1) 0.111111 0.111111 0.111111 0.111111 0.111111 0.111111 0.111111 0.111111 0.111111;
   (3, 5, 1) 0.0526316 0.0526316 0.0526316 0.0526316 0.578947 0.0526316 0.0526316 0.0526316 0.0526316;
   (4, 5, 1) 0.111111 0.111111 0.111111 0.111111 0.111111 0.111111 0.111111 0.111111 0.111111;
   (6, 5, 1) 0.870504 0.00719424 0.00719424 0.00719424 0.00719424 0.00719424 0.0791367 0.00719424 0.00719424;
   (5, 5, 1) 0.410799 0.331177 0.102264 0.0425479 0.0226424 0.0549888 0.0126897 0.002737 0.0201543;
   (1, 5, 1) 0.0630408 0.223733 0.211372 0.0754017 0.00123609 0.409147 0.00123609 0.00123609 0.013597;
   (0, 5, 1) 0.73913 0.0144928 0.15942 0.0144928 0.0144928 0.0144928 0.0144928 0.0144928 0.0144928;
   (2, 5, 1) 0.919192 0.010101 0.010101 0.010101 0.010101 0.010101 0.010101 0.010101 0.010101;
   (7, 5, 1) 0.0526316 0.0526316 0.0526316 0.0526316 0.578947 0.0526316 0.0526316 0.0526316 0.0526316;
   (8, 5, 1) 0.111111 0.111111 0.111111 0.111111 0.111111 0.111111 0.111111 0.111111 0.111111;
   (3, 1, 1) 0.403474 0.243761 0.0800559 0.0740667 0.0401278 0.0740667 0.0321421 0.000199641 0.0521062;
   (4, 1, 1) 0.33577 0.450407 0.0915434 0.0184416 0.0616381 0.0300714 0.011796 0.000166141 0.000166141;
   (6, 1, 1) 0.270186 0.178597 0.183418 0.0363943 0.0171126 0.287057 0.0098819 0.000241022 0.0171126;
   (5, 1, 1) 0.38895 0.2601 0.150906 0.0984931 0.0111378 0.0460799 0.0111378 0.00458615 0.0286089;
   (1, 1, 1) 0.482159 0.254134 0.0867238 0.0615882 0.0294772 0.0410227 0.022141 1.20266e-005 0.0227423;
   (0, 1, 1) 0.376882 0.233051 0.171623 0.081729 0.0262941 0.0307888 0.0375309 7.4912e-005 0.0420256;
   (2, 1, 1) 0.507586 0.189197 0.106878 0.0633376 0.0334036 0.0497313 0.0123138 6.80318e-005 0.0374855;
   (7, 1, 1) 0.701618 0.22828 0.000599161 0.0545237 0.0125824 0.000599161 0.000599161 0.000599161 0.000599161;
   (8, 1, 1) 0.111111 0.111111 0.111111 0.111111 0.111111 0.111111 0.111111 0.111111 0.111111;
   (3, 2, 1) 0.391586 0.294498 0.0355987 0.100324 0.00323625 0.0679612 0.100324 0.00323625 0.00323625;
   (4, 2, 1) 0.111111 0.111111 0.111111 0.111111 0.111111 0.111111 0.111111 0.111111 0.111111;
   (6, 2, 1) 0.926606 0.00917431 0.00917431 0.00917431 0.00917431 0.00917431 0.00917431 0.00917431 0.00917431;
   (5, 2, 1) 0.988716 0.00141044 0.00141044 0.00141044 0.00141044 0.00141044 0.00141044 0.00141044 0.00141044;
   (1, 2, 1) 0.230172 0.288443 0.213985 0.0521204 0.0100356 0.0294594 0.000323729 0.000323729 0.175138;
   (0, 2, 1) 0.111111 0.111111 0.111111 0.111111 0.111111 0.111111 0.111111 0.111111 0.111111;
   (2, 2, 1) 0.456852 0.394117 0.0367582 0.0437288 0.0288582 0.0269994 0.00841117 4.64706e-005 0.00422882;
   (7, 2, 1) 0.111111 0.111111 0.111111 0.111111 0.111111 0.111111 0.111111 0.111111 0.111111;
   (8, 2, 1) 0.111111 0.111111 0.111111 0.111111 0.111111 0.111111 0.111111 0.111111 0.111111;
   (3, 0, 1) 0.0441767 0.00401606 0.00401606 0.00401606 0.204819 0.726908 0.00401606 0.00401606 0.00401606;
   (4, 0, 1) 0.111111 0.111111 0.111111 0.111111 0.111111 0.111111 0.111111 0.111111 0.111111;
   (6, 0, 1) 0.794872 0.025641 0.025641 0.025641 0.025641 0.025641 0.025641 0.025641 0.025641;
   (5, 0, 1) 0.111111 0.111111 0.111111 0.111111 0.111111 0.111111 0.111111 0.111111 0.111111;
   (1, 0, 1) 0.418222 0.198105 0.0977988 0.125662 0.0532182 0.0309278 0.0114238 0.000278629 0.0643633;
   (0, 0, 1) 0.427307 0.199614 0.124789 0.0523775 0.0580095 0.0749055 0.0338724 8.0457e-005 0.029045;
   (2, 0, 1) 0.132686 0.00323625 0.0679612 0.00323625 0.294498 0.359223 0.132686 0.00323625 0.00323625;
   (7, 0, 1) 0.111111 0.111111 0.111111 0.111111 0.111111 0.111111 0.111111 0.111111 0.111111;
   (8, 0, 1) 0.111111 0.111111 0.111111 0.111111 0.111111 0.111111 0.111111 0.111111 0.111111;
   (3, 7, 1) 0.111111 0.111111 0.111111 0.111111 0.111111 0.111111 0.111111 0.111111 0.111111;
   (4, 7, 1) 0.111111 0.111111 0.111111 0.111111 0.111111 0.111111 0.111111 0.111111 0.111111;
   (6, 7, 1) 0.111111 0.111111 0.111111 0.111111 0.111111 0.111111 0.111111 0.111111 0.111111;
   (5, 7, 1) 0.0344828 0.0344828 0.724138 0.0344828 0.0344828 0.0344828 0.0344828 0.0344828 0.0344828;
   (1, 7, 1) 0.428571 0.391466 0.00185529 0.0204082 0.113173 0.00185529 0.00185529 0.00185529 0.038961;
   (0, 7, 1) 0.111111 0.111111 0.111111 0.111111 0.111111 0.111111 0.111111 0.111111 0.111111;
   (2, 7, 1) 0.111111 0.111111 0.111111 0.111111 0.111111 0.111111 0.111111 0.111111 0.111111;
   (7, 7, 1) 0.540251 0.377385 0.0190786 0.0330386 0.00511866 0.023732 0.000465333 0.000465333 0.000465333;
   (8, 7, 1) 0.111111 0.111111 0.111111 0.111111 0.111111 0.111111 0.111111 0.111111 0.111111;
   (3, 8, 1) 0.111111 0.111111 0.111111 0.111111 0.111111 0.111111 0.111111 0.111111 0.111111;
   (4, 8, 1) 0.111111 0.111111 0.111111 0.111111 0.111111 0.111111 0.111111 0.111111 0.111111;
   (6, 8, 1) 0.111111 0.111111 0.111111 0.111111 0.111111 0.111111 0.111111 0.111111 0.111111;
   (5, 8, 1) 0.111111 0.111111 0.111111 0.111111 0.111111 0.111111 0.111111 0.111111 0.111111;
   (1, 8, 1) 0.111111 0.111111 0.111111 0.111111 0.111111 0.111111 0.111111 0.111111 0.111111;
   (0, 8, 1) 0.111111 0.111111 0.111111 0.111111 0.111111 0.111111 0.111111 0.111111 0.111111;
   (2, 8, 1) 0.111111 0.111111 0.111111 0.111111 0.111111 0.111111 0.111111 0.111111 0.111111;
   (7, 8, 1) 0.111111 0.111111 0.111111 0.111111 0.111111 0.111111 0.111111 0.111111 0.111111;
   (8, 8, 1) 0.111111 0.111111 0.111111 0.111111 0.111111 0.111111 0.111111 0.111111 0.111111;
   (3, 3, 7) 0.0852713 0.0852713 0.00775194 0.162791 0.472868 0.162791 0.00775194 0.00775194 0.00775194;
   (4, 3, 7) 0.0204082 0.0204082 0.0204082 0.428571 0.428571 0.0204082 0.0204082 0.0204082 0.0204082;
   (6, 3, 7) 0.111111 0.111111 0.111111 0.111111 0.111111 0.111111 0.111111 0.111111 0.111111;
   (5, 3, 7) 0.111111 0.111111 0.111111 0.111111 0.111111 0.111111 0.111111 0.111111 0.111111;
   (1, 3, 7) 0.111111 0.111111 0.111111 0.111111 0.111111 0.111111 0.111111 0.111111 0.111111;
   (0, 3, 7) 0.111111 0.111111 0.111111 0.111111 0.111111 0.111111 0.111111 0.111111 0.111111;
   (2, 3, 7) 0.111111 0.111111 0.111111 0.111111 0.111111 0.111111 0.111111 0.111111 0.111111;
   (7, 3, 7) 0.111111 0.111111 0.111111 0.111111 0.111111 0.111111 0.111111 0.111111 0.111111;
   (8, 3, 7) 0.111111 0.111111 0.111111 0.111111 0.111111 0.111111 0.111111 0.111111 0.111111;
   (3, 4, 7) 0.0526316 0.0526316 0.578947 0.0526316 0.0526316 0.0526316 0.0526316 0.0526316 0.0526316;
   (4, 4, 7) 0.391584 0.312722 0.0461302 0.133366 0.0356619 0.0321725 0.0314746 6.97885e-005 0.016819;
   (6, 4, 7) 0.724138 0.0344828 0.0344828 0.0344828 0.0344828 0.0344828 0.0344828 0.0344828 0.0344828;
   (5, 4, 7) 0.344538 0.00840336 0.00840336 0.00840336 0.596639 0.00840336 0.00840336 0.00840336 0.00840336;
   (1, 4, 7) 0.111111 0.111111 0.111111 0.111111 0.111111 0.111111 0.111111 0.111111 0.111111;
   (0, 4, 7) 0.111111 0.111111 0.111111 0.111111 0.111111 0.111111 0.111111 0.111111 0.111111;
   (2, 4, 7) 0.111111 0.111111 0.111111 0.111111 0.111111 0.111111 0.111111 0.111111 0.111111;
   (7, 4, 7) 0.64082 0.135568 0.0455228 0.0155078 0.00050025 0.0205103 0.0655328 0.00050025 0.0755378;
   (8, 4, 7) 0.111111 0.111111 0.111111 0.111111 0.111111 0.111111 0.111111 0.111111 0.111111;
   (3, 6, 7) 0.025641 0.794872 0.025641 0.025641 0.025641 0.025641 0.025641 0.025641 0.025641;
   (4, 6, 7) 0.0619469 0.179941 0.0914454 0.238938 0.238938 0.150442 0.0324484 0.00294985 0.00294985;
   (6, 6, 7) 0.211142 0.353741 0.145546 0.133188 0.0428748 0.0542827 0.00294705 9.50661e-005 0.056184;
   (5, 6, 7) 0.139241 0.772152 0.0126582 0.0126582 0.0126582 0.0126582 0.0126582 0.0126582 0.0126582;
   (1, 6, 7) 0.111111 0.111111 0.111111 0.111111 0.111111 0.111111 0.111111 0.111111 0.111111;
   (0, 6, 7) 0.111111 0.111111 0.111111 0.111111 0.111111 0.111111 0.111111 0.111111 0.111111;
   (2, 6, 7) 0.111111 0.111111 0.111111 0.111111 0.111111 0.111111 0.111111 0.111111 0.111111;
   (7, 6, 7) 0.241457 0.53906 0.0416126 0.128125 0.017389 0.00441215 0.0208496 8.65127e-005 0.00700753;
   (8, 6, 7) 0.111111 0.111111 0.111111 0.111111 0.111111 0.111111 0.111111 0.111111 0.111111;
   (3, 5, 7) 0.111111 0.111111 0.111111 0.111111 0.111111 0.111111 0.111111 0.111111 0.111111;
   (4, 5, 7) 0.0324484 0.622419 0.00294985 0.297935 0.0324484 0.00294985 0.00294985 0.00294985 0.00294985;
   (6, 5, 7) 0.165049 0.132686 0.521036 0.100324 0.0679612 0.00323625 0.00323625 0.00323625 0.00323625;
   (5, 5, 7) 0.219971 0.525717 0.0271858 0.0859251 0.0317042 0.0806537 0.0219143 0.000828376 0.00609986;
   (1, 5, 7) 0.111111 0.111111 0.111111 0.111111 0.111111 0.111111 0.111111 0.111111 0.111111;
   (0, 5, 7) 0.111111 0.111111 0.111111 0.111111 0.111111 0.111111 0.111111 0.111111 0.111111;
   (2, 5, 7) 0.111111 0.111111 0.111111 0.111111 0.111111 0.111111 0.111111 0.111111 0.111111;
   (7, 5, 7) 0.0558349 0.508336 0.132575 0.0928817 0.0611273 0.0770045 0.0452501 0.00026462 0.0267266;
   (8, 5, 7) 0.111111 0.111111 0.111111 0.111111 0.111111 0.111111 0.111111 0.111111 0.111111;
   (3, 1, 7) 0.111111 0.111111 0.111111 0.111111 0.111111 0.111111 0.111111 0.111111 0.111111;
   (4, 1, 7) 0.111111 0.111111 0.111111 0.111111 0.111111 0.111111 0.111111 0.111111 0.111111;
   (6, 1, 7) 0.111111 0.111111 0.111111 0.111111 0.111111 0.111111 0.111111 0.111111 0.111111;
   (5, 1, 7) 0.111111 0.111111 0.111111 0.111111 0.111111 0.111111 0.111111 0.111111 0.111111;
   (1, 1, 7) 0.573499 0.10421 0.138716 0.0144928 0.000690131 0.15942 0.000690131 0.000690131 0.00759144;
   (0, 1, 7) 0.695568 0.0211946 0.233141 0.0404624 0.00192678 0.00192678 0.00192678 0.00192678 0.00192678;
   (2, 1, 7) 0.111111 0.111111 0.111111 0.111111 0.111111 0.111111 0.111111 0.111111 0.111111;
   (7, 1, 7) 0.092437 0.596639 0.176471 0.092437 0.00840336 0.00840336 0.00840336 0.00840336 0.00840336;
   (8, 1, 7) 0.111111 0.111111 0.111111 0.111111 0.111111 0.111111 0.111111 0.111111 0.111111;
   (3, 2, 7) 0.111111 0.111111 0.111111 0.111111 0.111111 0.111111 0.111111 0.111111 0.111111;
   (4, 2, 7) 0.111111 0.111111 0.111111 0.111111 0.111111 0.111111 0.111111 0.111111 0.111111;
   (6, 2, 7) 0.111111 0.111111 0.111111 0.111111 0.111111 0.111111 0.111111 0.111111 0.111111;
   (5, 2, 7) 0.111111 0.111111 0.111111 0.111111 0.111111 0.111111 0.111111 0.111111 0.111111;
   (1, 2, 7) 0.111111 0.111111 0.111111 0.111111 0.111111 0.111111 0.111111 0.111111 0.111111;
   (0, 2, 7) 0.0526316 0.0526316 0.0526316 0.0526316 0.0526316 0.578947 0.0526316 0.0526316 0.0526316;
   (2, 2, 7) 0.552511 0.0502283 0.00456621 0.00456621 0.278539 0.00456621 0.0958904 0.00456621 0.00456621;
   (7, 2, 7) 0.884058 0.0144928 0.0144928 0.0144928 0.0144928 0.0144928 0.0144928 0.0144928 0.0144928;
   (8, 2, 7) 0.111111 0.111111 0.111111 0.111111 0.111111 0.111111 0.111111 0.111111 0.111111;
   (3, 0, 7) 0.22449 0.0204082 0.22449 0.22449 0.22449 0.0204082 0.0204082 0.0204082 0.0204082;
   (4, 0, 7) 0.111111 0.111111 0.111111 0.111111 0.111111 0.111111 0.111111 0.111111 0.111111;
   (6, 0, 7) 0.111111 0.111111 0.111111 0.111111 0.111111 0.111111 0.111111 0.111111 0.111111;
   (5, 0, 7) 0.111111 0.111111 0.111111 0.111111 0.111111 0.111111 0.111111 0.111111 0.111111;
   (1, 0, 7) 0.724138 0.0344828 0.0344828 0.0344828 0.0344828 0.0344828 0.0344828 0.0344828 0.0344828;
   (0, 0, 7) 0.299028 0.38539 0.0471393 0.198273 0.0543361 0.00395826 0.0111551 0.000359842 0.000359842;
   (2, 0, 7) 0.0526316 0.578947 0.0526316 0.0526316 0.0526316 0.0526316 0.0526316 0.0526316 0.0526316;
   (7, 0, 7) 0.0126582 0.139241 0.392405 0.392405 0.0126582 0.0126582 0.0126582 0.0126582 0.0126582;
   (8, 0, 7) 0.111111 0.111111 0.111111 0.111111 0.111111 0.111111 0.111111 0.111111 0.111111;
   (3, 7, 7) 0.146132 0.0888252 0.0601719 0.00286533 0.575931 0.117479 0.00286533 0.00286533 0.00286533;
   (4, 7, 7) 0.152594 0.646676 0.0628326 0.0922234 0.00802288 0.0302645 0.00405116 7.94344e-005 0.00325681;
   (6, 7, 7) 0.163133 0.400907 0.0761123 0.131266 0.0589533 0.0663071 0.025861 0.000122564 0.0773379;
   (5, 7, 7) 0.307586 0.254389 0.204383 0.180977 0.0107458 0.00542611 0.0139377 0.000106394 0.0224492;
   (1, 7, 7) 0.165049 0.585761 0.0355987 0.100324 0.00323625 0.100324 0.00323625 0.00323625 0.00323625;
   (0, 7, 7) 0.00250627 0.0776942 0.328321 0.578947 0.00250627 0.00250627 0.00250627 0.00250627 0.00250627;
   (2, 7, 7) 0.196172 0.148325 0.00478469 0.244019 0.100478 0.00478469 0.00478469 0.00478469 0.291866;
   (7, 7, 7) 0.210869 0.379745 0.106573 0.133535 0.0742828 0.0505497 0.00921875 1.61449e-005 0.0352121;
   (8, 7, 7) 0.111111 0.111111 0.111111 0.111111 0.111111 0.111111 0.111111 0.111111 0.111111;
   (3, 8, 7) 0.111111 0.111111 0.111111 0.111111 0.111111 0.111111 0.111111 0.111111 0.111111;
   (4, 8, 7) 0.111111 0.111111 0.111111 0.111111 0.111111 0.111111 0.111111 0.111111 0.111111;
   (6, 8, 7) 0.111111 0.111111 0.111111 0.111111 0.111111 0.111111 0.111111 0.111111 0.111111;
   (5, 8, 7) 0.111111 0.111111 0.111111 0.111111 0.111111 0.111111 0.111111 0.111111 0.111111;
   (1, 8, 7) 0.111111 0.111111 0.111111 0.111111 0.111111 0.111111 0.111111 0.111111 0.111111;
   (0, 8, 7) 0.111111 0.111111 0.111111 0.111111 0.111111 0.111111 0.111111 0.111111 0.111111;
   (2, 8, 7) 0.111111 0.111111 0.111111 0.111111 0.111111 0.111111 0.111111 0.111111 0.111111;
   (7, 8, 7) 0.111111 0.111111 0.111111 0.111111 0.111111 0.111111 0.111111 0.111111 0.111111;
   (8, 8, 7) 0.111111 0.111111 0.111111 0.111111 0.111111 0.111111 0.111111 0.111111 0.111111;
   (3, 3, 8) 0.111111 0.111111 0.111111 0.111111 0.111111 0.111111 0.111111 0.111111 0.111111;
   (4, 3, 8) 0.111111 0.111111 0.111111 0.111111 0.111111 0.111111 0.111111 0.111111 0.111111;
   (6, 3, 8) 0.111111 0.111111 0.111111 0.111111 0.111111 0.111111 0.111111 0.111111 0.111111;
   (5, 3, 8) 0.111111 0.111111 0.111111 0.111111 0.111111 0.111111 0.111111 0.111111 0.111111;
   (1, 3, 8) 0.111111 0.111111 0.111111 0.111111 0.111111 0.111111 0.111111 0.111111 0.111111;
   (0, 3, 8) 0.111111 0.111111 0.111111 0.111111 0.111111 0.111111 0.111111 0.111111 0.111111;
   (2, 3, 8) 0.111111 0.111111 0.111111 0.111111 0.111111 0.111111 0.111111 0.111111 0.111111;
   (7, 3, 8) 0.111111 0.111111 0.111111 0.111111 0.111111 0.111111 0.111111 0.111111 0.111111;
   (8, 3, 8) 0.111111 0.111111 0.111111 0.111111 0.111111 0.111111 0.111111 0.111111 0.111111;
   (3, 4, 8) 0.111111 0.111111 0.111111 0.111111 0.111111 0.111111 0.111111 0.111111 0.111111;
   (4, 4, 8) 0.111111 0.111111 0.111111 0.111111 0.111111 0.111111 0.111111 0.111111 0.111111;
   (6, 4, 8) 0.111111 0.111111 0.111111 0.111111 0.111111 0.111111 0.111111 0.111111 0.111111;
   (5, 4, 8) 0.111111 0.111111 0.111111 0.111111 0.111111 0.111111 0.111111 0.111111 0.111111;
   (1, 4, 8) 0.111111 0.111111 0.111111 0.111111 0.111111 0.111111 0.111111 0.111111 0.111111;
   (0, 4, 8) 0.111111 0.111111 0.111111 0.111111 0.111111 0.111111 0.111111 0.111111 0.111111;
   (2, 4, 8) 0.111111 0.111111 0.111111 0.111111 0.111111 0.111111 0.111111 0.111111 0.111111;
   (7, 4, 8) 0.111111 0.111111 0.111111 0.111111 0.111111 0.111111 0.111111 0.111111 0.111111;
   (8, 4, 8) 0.111111 0.111111 0.111111 0.111111 0.111111 0.111111 0.111111 0.111111 0.111111;
   (3, 6, 8) 0.111111 0.111111 0.111111 0.111111 0.111111 0.111111 0.111111 0.111111 0.111111;
   (4, 6, 8) 0.111111 0.111111 0.111111 0.111111 0.111111 0.111111 0.111111 0.111111 0.111111;
   (6, 6, 8) 0.111111 0.111111 0.111111 0.111111 0.111111 0.111111 0.111111 0.111111 0.111111;
   (5, 6, 8) 0.111111 0.111111 0.111111 0.111111 0.111111 0.111111 0.111111 0.111111 0.111111;
   (1, 6, 8) 0.111111 0.111111 0.111111 0.111111 0.111111 0.111111 0.111111 0.111111 0.111111;
   (0, 6, 8) 0.111111 0.111111 0.111111 0.111111 0.111111 0.111111 0.111111 0.111111 0.111111;
   (2, 6, 8) 0.111111 0.111111 0.111111 0.111111 0.111111 0.111111 0.111111 0.111111 0.111111;
   (7, 6, 8) 0.111111 0.111111 0.111111 0.111111 0.111111 0.111111 0.111111 0.111111 0.111111;
   (8, 6, 8) 0.111111 0.111111 0.111111 0.111111 0.111111 0.111111 0.111111 0.111111 0.111111;
   (3, 5, 8) 0.111111 0.111111 0.111111 0.111111 0.111111 0.111111 0.111111 0.111111 0.111111;
   (4, 5, 8) 0.111111 0.111111 0.111111 0.111111 0.111111 0.111111 0.111111 0.111111 0.111111;
   (6, 5, 8) 0.111111 0.111111 0.111111 0.111111 0.111111 0.111111 0.111111 0.111111 0.111111;
   (5, 5, 8) 0.111111 0.111111 0.111111 0.111111 0.111111 0.111111 0.111111 0.111111 0.111111;
   (1, 5, 8) 0.111111 0.111111 0.111111 0.111111 0.111111 0.111111 0.111111 0.111111 0.111111;
   (0, 5, 8) 0.111111 0.111111 0.111111 0.111111 0.111111 0.111111 0.111111 0.111111 0.111111;
   (2, 5, 8) 0.111111 0.111111 0.111111 0.111111 0.111111 0.111111 0.111111 0.111111 0.111111;
   (7, 5, 8) 0.111111 0.111111 0.111111 0.111111 0.111111 0.111111 0.111111 0.111111 0.111111;
   (8, 5, 8) 0.111111 0.111111 0.111111 0.111111 0.111111 0.111111 0.111111 0.111111 0.111111;
   (3, 1, 8) 0.111111 0.111111 0.111111 0.111111 0.111111 0.111111 0.111111 0.111111 0.111111;
   (4, 1, 8) 0.111111 0.111111 0.111111 0.111111 0.111111 0.111111 0.111111 0.111111 0.111111;
   (6, 1, 8) 0.111111 0.111111 0.111111 0.111111 0.111111 0.111111 0.111111 0.111111 0.111111;
   (5, 1, 8) 0.111111 0.111111 0.111111 0.111111 0.111111 0.111111 0.111111 0.111111 0.111111;
