
network unnamedBN{
   property software aGrUM;
}

variable distance? {
   type discrete[3] {1, 0, 2};
}

variable direction? {
   type discrete[9] {0, 7, 1, 6, 5, 2, 4, 8, 3};
}

variable dist_coll_1? {
   type discrete[1] {1};
}

variable dir_coll_1? {
   type discrete[9] {3, 4, 6, 5, 1, 2, 0, 7, 8};
}

variable dist_coll_2? {
   type discrete[1] {1};
}

variable dir_coll_2? {
   type discrete[9] {3, 4, 6, 5, 1, 0, 2, 7, 8};
}

variable dist_coll_3? {
   type discrete[1] {1};
}

variable dir_coll_3? {
   type discrete[9] {3, 4, 6, 5, 2, 0, 1, 7, 8};
}

variable dist_shell? {
   type discrete[2] {0, 1};
}

variable move? {
   type discrete[3] {1, 0, -1};
}

variable turn? {
   type discrete[3] {1, 0, -1};
}

variable shell? {
   type discrete[3] {0, 1, 2};
}

variable shield? {
   type discrete[2] {0, 1};
}

probability (distance?) {
   default 0.739902 0.254894 0.00520399;
}
probability (direction? | distance?) {
   (1) 0.353381 0.312702 0.104143 0.0918608 0.040705 0.0498154 0.0226303 0.000481623 0.0242804;
   (0) 0.329049 0.299684 0.0930594 0.115613 0.045158 0.0543141 0.0267708 0.000100719 0.0362513;
   (2) 0.257886 4.52591e-005 0.092917 0.134465 0.193121 0.068477 0.252998 4.52591e-005 4.52591e-005;
}
probability (dist_coll_1? | distance?) {
   (1) 1;
   (0) 1;
   (2) 1;
}
probability (dir_coll_1? | direction?) {
   (0) 0.105437 0.118571 0.13009 0.131869 0.162539 0.15412 0.130054 0.0673198 2.26459e-007;
   (7) 0.0614734 0.146544 0.184213 0.187271 0.102531 0.107036 0.0832318 0.127699 2.55102e-007;
   (1) 0.0987252 0.0908122 0.0937011 0.11631 0.157884 0.184324 0.155058 0.103184 7.75331e-007;
   (6) 0.104588 0.139904 0.153058 0.1493 0.0926647 0.115474 0.106402 0.138478 0.0001304;
   (5) 0.0900958 0.109934 0.144093 0.142601 0.100985 0.145584 0.14454 0.122166 1.84151e-006;
   (2) 0.105617 0.106863 0.0915434 0.133017 0.152571 0.160542 0.174118 0.075726 1.53761e-006;
   (4) 0.115257 0.133656 0.094046 0.143878 0.107846 0.1679 0.173011 0.064402 3.15495e-006;
   (8) 0.000205381 0.133292 0.0667488 0.632368 0.050113 0.0667488 0.0168412 0.0334771 0.000205381;
   (3) 0.111734 0.164094 0.120617 0.126461 0.121318 0.141654 0.111033 0.103086 2.88578e-006;
}
probability (dist_coll_2? | distance?) {
   (1) 1;
   (0) 1;
   (2) 1;
}
probability (dir_coll_2? | dir_coll_1?) {
   (3) 0.71672 0.0407283 0.00496933 0.00461944 0.064451 0.0445072 0.121204 0.0028 8.63932e-007;
   (4) 0.0276157 0.675268 0.074091 0.102156 0.0349196 0.028266 0.00795495 0.0497277 6.1762e-007;
   (6) 0.0108245 0.0848554 0.639329 0.0950558 0.0568377 0.00650386 0.0216931 0.0848999 5.49916e-007;
   (5) 0.0108175 0.0939171 0.105116 0.645073 0.040002 0.0152291 0.049504 0.0403414 5.23696e-007;
   (1) 0.0496292 0.03003 0.0316795 0.0238689 0.670205 0.0732064 0.112793 0.00858737 5.98924e-007;
   (2) 0.0749853 0.00623021 0.0157579 0.0606938 0.125968 0.0550596 0.658006 0.00329861 5.65509e-007;
   (0) 0.0659771 0.0293354 0.0290687 0.0352557 0.069764 0.686967 0.0664571 0.0171748 6.58467e-007;
   (7) 0.00215922 0.107923 0.103923 0.107605 0.00596824 0.0711024 0.00127045 0.599984 6.42673e-005;
   (8) 0.00584795 0.479532 0.00584795 0.00584795 0.00584795 0.00584795 0.00584795 0.00584795 0.479532;
}
probability (dist_coll_3? | distance?) {
   (1) 1;
   (0) 1;
   (2) 1;
}
probability (dir_coll_3? | dir_coll_1?) {
   (3) 0.680891 0.0428977 0.00762852 0.0269426 0.10175 0.0715888 0.0671802 0.00112052 8.63932e-007;
   (4) 0.00875538 0.635797 0.0807446 0.126419 0.00875538 0.0326684 0.024564 0.0822954 6.1762e-007;
   (6) 0.00899828 0.0856126 0.618928 0.0921605 0.0170161 0.0192432 0.0578622 0.100178 5.49916e-007;
   (5) 0.0110296 0.0845424 0.154831 0.581062 0.0567577 0.0151443 0.0216768 0.0749556 5.23696e-007;
   (1) 0.0608842 0.0249847 0.0398296 0.0344447 0.119439 0.0673849 0.643038 0.00999424 5.98924e-007;
   (2) 0.0915671 0.0103528 0.0289043 0.0674731 0.618064 0.0646789 0.117677 0.00128314 5.65509e-007;
   (0) 0.0907783 0.028482 0.00901442 0.0274153 0.0900849 0.650271 0.0883782 0.0155214 5.39943e-005;
   (7) 0.00298451 0.0797996 0.106272 0.0749114 0.0155543 0.11097 0.0170779 0.592175 0.000254718;
   (8) 0.00584795 0.00584795 0.00584795 0.479532 0.00584795 0.00584795 0.00584795 0.00584795 0.479532;
}
probability (dist_shell? | distance?) {
   (1) 0.999698 0.000302248;
   (0) 0.999198 0.000802515;
   (2) 0.999796 0.000203666;
}
probability (move? | dir_coll_1?, direction?, distance?) {
   (3, 0, 1) 0.186011 0.731488 0.0825009;
   (4, 0, 1) 0.107875 0.768381 0.123745;
   (6, 0, 1) 0.119298 0.803946 0.0767562;
   (5, 0, 1) 0.134764 0.757213 0.108023;
   (1, 0, 1) 0.194531 0.729687 0.0757814;
   (2, 0, 1) 0.190864 0.721594 0.0875417;
   (0, 0, 1) 0.0979927 0.840762 0.0612455;
   (7, 0, 1) 0.174423 0.747892 0.0776845;
   (8, 0, 1) 0.333333 0.333333 0.333333;
   (3, 7, 1) 0.0903527 0.807554 0.102093;
   (4, 7, 1) 0.147007 0.745306 0.107687;
   (6, 7, 1) 0.15688 0.762695 0.0804257;
   (5, 7, 1) 0.141675 0.759452 0.098873;
   (1, 7, 1) 0.135719 0.739352 0.124929;
   (2, 7, 1) 0.145545 0.765633 0.0888215;
   (0, 7, 1) 0.14368 0.79329 0.0630299;
   (7, 7, 1) 0.140328 0.778281 0.0813906;
   (8, 7, 1) 0.333333 0.333333 0.333333;
   (3, 1, 1) 0.163471 0.729679 0.10685;
   (4, 1, 1) 0.248988 0.597165 0.153847;
   (6, 1, 1) 0.213115 0.656647 0.130238;
   (5, 1, 1) 0.222066 0.704848 0.0730858;
   (1, 1, 1) 0.2762 0.682174 0.0416264;
   (2, 1, 1) 0.233858 0.734685 0.0314575;
   (0, 1, 1) 0.195595 0.763502 0.0409026;
   (7, 1, 1) 0.166377 0.657664 0.175959;
   (8, 1, 1) 0.333333 0.333333 0.333333;
   (3, 6, 1) 0.17001 0.681947 0.148043;
   (4, 6, 1) 0.267524 0.632154 0.100322;
   (6, 6, 1) 0.168068 0.770307 0.0616253;
   (5, 6, 1) 0.221543 0.715421 0.0630362;
   (1, 6, 1) 0.186231 0.772007 0.0417621;
   (2, 6, 1) 0.176316 0.759648 0.0640361;
   (0, 6, 1) 0.208118 0.74784 0.0440425;
   (7, 6, 1) 0.248146 0.681725 0.0701289;
   (8, 6, 1) 0.333333 0.333333 0.333333;
   (3, 5, 1) 0.356757 0.567565 0.0756785;
   (4, 5, 1) 0.198239 0.797353 0.00440827;
   (6, 5, 1) 0.243723 0.719348 0.0369294;
   (5, 5, 1) 0.193688 0.789093 0.0172185;
   (1, 5, 1) 0.30819 0.653014 0.0387957;
   (2, 5, 1) 0.281928 0.679516 0.0385557;
   (0, 5, 1) 0.224044 0.669397 0.106559;
   (7, 5, 1) 0.19922 0.757809 0.0429711;
   (8, 5, 1) 0.333333 0.333333 0.333333;
   (3, 2, 1) 0.189797 0.775506 0.0346964;
   (4, 2, 1) 0.237114 0.730238 0.0326482;
   (6, 2, 1) 0.219617 0.742001 0.0383821;
   (5, 2, 1) 0.123338 0.835548 0.0411139;
   (1, 2, 1) 0.234747 0.680454 0.0847994;
   (2, 2, 1) 0.13426 0.82222 0.0435196;
   (0, 2, 1) 0.216418 0.679103 0.104479;
   (7, 2, 1) 0.446952 0.424378 0.12867;
   (8, 2, 1) 0.333333 0.333333 0.333333;
   (3, 4, 1) 0.330827 0.537591 0.131582;
   (4, 4, 1) 0.328798 0.659861 0.0113409;
   (6, 4, 1) 0.27841 0.607948 0.113641;
   (5, 4, 1) 0.275944 0.672167 0.0518895;
   (1, 4, 1) 0.437499 0.539471 0.0230305;
   (2, 4, 1) 0.348993 0.61521 0.0357969;
   (0, 4, 1) 0.338308 0.572137 0.0895547;
   (7, 4, 1) 0.0346892 0.774556 0.190755;
   (8, 4, 1) 0.333333 0.333333 0.333333;
   (3, 8, 1) 0.333333 0.333333 0.333333;
   (4, 8, 1) 0.142969 0.428515 0.428515;
   (6, 8, 1) 0.000342583 0.999315 0.000342583;
   (5, 8, 1) 3.80996e-005 0.972149 0.0278127;
   (1, 8, 1) 0.333333 0.000456621 0.66621;
   (2, 8, 1) 0.000342583 0.499829 0.499829;
   (0, 8, 1) 0.00136612 0.997268 0.00136612;
   (7, 8, 1) 0.997268 0.00136612 0.00136612;
   (8, 8, 1) 0.333333 0.333333 0.333333;
   (3, 3, 1) 0.266668 0.519296 0.214037;
   (4, 3, 1) 0.209266 0.742809 0.0479252;
   (6, 3, 1) 0.35249 0.647505 5.25563e-006;
   (5, 3, 1) 0.183141 0.813948 0.00291093;
   (1, 3, 1) 0.248486 0.706056 0.0454581;
   (2, 3, 1) 0.487533 0.468143 0.0443246;
   (0, 3, 1) 0.14286 0.812918 0.0442217;
   (7, 3, 1) 0.358024 0.641971 4.23372e-006;
   (8, 3, 1) 0.333333 0.333333 0.333333;
   (3, 0, 0) 0.162236 0.661963 0.175801;
   (4, 0, 0) 0.144011 0.731493 0.124496;
   (6, 0, 0) 0.221285 0.621673 0.157041;
   (5, 0, 0) 0.287708 0.591361 0.120931;
   (1, 0, 0) 0.215474 0.65391 0.130616;
   (2, 0, 0) 0.168578 0.691719 0.139703;
   (0, 0, 0) 0.189144 0.689566 0.12129;
   (7, 0, 0) 0.157535 0.704336 0.138129;
   (8, 0, 0) 0.333333 0.333333 0.333333;
   (3, 7, 0) 0.125001 0.724408 0.150591;
   (4, 7, 0) 0.205395 0.691562 0.103044;
   (6, 7, 0) 0.157641 0.711527 0.130832;
   (5, 7, 0) 0.175755 0.712755 0.11149;
   (1, 7, 0) 0.136112 0.755554 0.108334;
   (2, 7, 0) 0.15198 0.780969 0.0670505;
   (0, 7, 0) 0.106779 0.779943 0.113278;
   (7, 7, 0) 0.149225 0.770671 0.080104;
   (8, 7, 0) 0.333333 0.333333 0.333333;
   (3, 1, 0) 0.254202 0.628149 0.117649;
   (4, 1, 0) 0.303297 0.606591 0.0901121;
   (6, 1, 0) 0.261539 0.666663 0.0717976;
   (5, 1, 0) 0.284383 0.517481 0.198136;
   (1, 1, 0) 0.221278 0.640423 0.1383;
   (2, 1, 0) 0.301159 0.633202 0.0656392;
   (0, 1, 0) 0.139167 0.793237 0.0675966;
   (7, 1, 0) 0.271984 0.396727 0.331288;
   (8, 1, 0) 0.333333 0.333333 0.333333;
   (3, 6, 0) 0.394265 0.541217 0.0645181;
   (4, 6, 0) 0.154239 0.793217 0.0525443;
   (6, 6, 0) 0.311959 0.677641 0.0104009;
   (5, 6, 0) 0.248504 0.643711 0.107786;
   (1, 6, 0) 0.18614 0.659403 0.154457;
   (2, 6, 0) 0.178931 0.739128 0.0819415;
   (0, 6, 0) 0.153529 0.719914 0.126558;
   (7, 6, 0) 0.266055 0.709478 0.0244668;
   (8, 6, 0) 0.000684463 0.998631 0.000684463;
   (3, 5, 0) 0.394284 0.542852 0.0628635;
   (4, 5, 0) 0.437498 0.402343 0.160159;
   (6, 5, 0) 0.282529 0.665422 0.0520489;
   (5, 5, 0) 0.254827 0.513511 0.231662;
   (1, 5, 0) 0.331754 0.554498 0.113748;
   (2, 5, 0) 0.425529 0.524817 0.0496537;
   (0, 5, 0) 0.374999 0.535711 0.0892902;
   (7, 5, 0) 0.163639 0.818175 0.0181865;
   (8, 5, 0) 0.333333 0.333333 0.333333;
   (3, 2, 0) 0.173186 0.695527 0.131287;
   (4, 2, 0) 0.460965 0.468399 0.070636;
   (6, 2, 0) 0.365384 0.603842 0.030774;
   (5, 2, 0) 0.310925 0.626045 0.0630299;
   (1, 2, 0) 0.266668 0.670828 0.0625046;
   (2, 2, 0) 0.181821 0.78468 0.0334987;
   (0, 2, 0) 0.287672 0.538811 0.173517;
   (7, 2, 0) 0.28485 0.696961 0.0181897;
   (8, 2, 0) 0.333333 0.333333 0.333333;
   (3, 4, 0) 0.224493 0.761893 0.0136144;
   (4, 4, 0) 0.506657 0.413329 0.0800139;
   (6, 4, 0) 0.361962 0.588951 0.0490869;
   (5, 4, 0) 0.514556 0.359222 0.126222;
   (1, 4, 0) 0.402171 0.358695 0.239135;
   (2, 4, 0) 0.3375 0.568744 0.0937562;
   (0, 4, 0) 0.409265 0.494206 0.0965289;
   (7, 4, 0) 0.513504 0.405401 0.0810951;
   (8, 4, 0) 0.333333 0.333333 0.333333;
   (3, 8, 0) 0.333333 0.333333 0.333333;
   (4, 8, 0) 0.00136612 0.997268 0.00136612;
   (6, 8, 0) 0.333333 0.333333 0.333333;
   (5, 8, 0) 0.000684463 0.998631 0.000684463;
   (1, 8, 0) 0.333333 0.333333 0.333333;
   (2, 8, 0) 0.333333 0.333333 0.333333;
   (0, 8, 0) 0.333333 0.333333 0.333333;
   (7, 8, 0) 0.00136612 0.997268 0.00136612;
   (8, 8, 0) 0.333333 0.333333 0.333333;
   (3, 3, 0) 0.424869 0.487043 0.0880881;
   (4, 3, 0) 0.342105 0.55262 0.105276;
   (6, 3, 0) 0.152944 0.847051 5.37929e-006;
   (5, 3, 0) 0.131984 0.827401 0.0406152;
   (1, 3, 0) 0.126989 0.867713 0.00529815;
   (2, 3, 0) 0.281634 0.669382 0.0489844;
   (0, 3, 0) 0.171274 0.767946 0.0607797;
   (7, 3, 0) 0.153852 0.846136 1.17239e-005;
   (8, 3, 0) 0.333333 0.333333 0.333333;
   (3, 0, 2) 0.000684463 0.998631 0.000684463;
   (4, 0, 2) 0.333333 0.333333 0.333333;
   (6, 0, 2) 5.07975e-005 0.999898 5.07975e-005;
   (5, 0, 2) 0.333333 0.333333 0.333333;
   (1, 0, 2) 2.40639e-005 0.999952 2.40639e-005;
   (2, 0, 2) 5.07975e-005 0.999898 5.07975e-005;
   (0, 0, 2) 4.15628e-005 0.999917 4.15628e-005;
   (7, 0, 2) 2.11024e-005 0.999958 2.11024e-005;
   (8, 0, 2) 0.333333 0.333333 0.333333;
   (3, 7, 2) 0.333333 0.333333 0.333333;
   (4, 7, 2) 0.333333 0.333333 0.333333;
   (6, 7, 2) 0.333333 0.333333 0.333333;
   (5, 7, 2) 0.333333 0.333333 0.333333;
   (1, 7, 2) 0.333333 0.333333 0.333333;
   (2, 7, 2) 0.333333 0.333333 0.333333;
   (0, 7, 2) 0.333333 0.333333 0.333333;
   (7, 7, 2) 0.333333 0.333333 0.333333;
   (8, 7, 2) 0.333333 0.333333 0.333333;
   (3, 1, 2) 0.00136612 0.997268 0.00136612;
   (4, 1, 2) 0.000456621 0.999087 0.000456621;
   (6, 1, 2) 0.000342583 0.999315 0.000342583;
   (5, 1, 2) 0.333333 0.333333 0.333333;
   (1, 1, 2) 0.000684463 0.998631 0.000684463;
   (2, 1, 2) 0.00136612 0.997268 0.00136612;
   (0, 1, 2) 2.32482e-005 0.999954 2.32482e-005;
   (7, 1, 2) 0.000228467 0.999543 0.000228467;
   (8, 1, 2) 0.333333 0.333333 0.333333;
   (3, 6, 2) 0.000152346 0.999695 0.000152346;
   (4, 6, 2) 9.79528e-005 0.999804 9.79528e-005;
   (6, 6, 2) 0.333333 0.333333 0.333333;
   (5, 6, 2) 0.000684463 0.998631 0.000684463;
   (1, 6, 2) 3.51692e-005 0.99993 3.51692e-005;
   (2, 6, 2) 3.1173e-005 0.999938 3.1173e-005;
   (0, 6, 2) 0.000684463 0.998631 0.000684463;
   (7, 6, 2) 0.333333 0.333333 0.333333;
   (8, 6, 2) 0.333333 0.333333 0.333333;
   (3, 5, 2) 2.32482e-005 0.999954 2.32482e-005;
   (4, 5, 2) 5.07975e-005 0.999898 5.07975e-005;
   (6, 5, 2) 6.8573e-005 0.999863 6.8573e-005;
   (5, 5, 2) 0.333333 0.333333 0.333333;
   (1, 5, 2) 0.000684463 0.998631 0.000684463;
   (2, 5, 2) 0.000274123 0.999452 0.000274123;
   (0, 5, 2) 0.000105485 0.999789 0.000105485;
   (7, 5, 2) 4.28614e-005 0.999914 4.28614e-005;
   (8, 5, 2) 0.333333 0.333333 0.333333;
   (3, 2, 2) 0.333333 0.333333 0.333333;
   (4, 2, 2) 0.000195848 0.999608 0.000195848;
   (6, 2, 2) 0.000228467 0.999543 0.000228467;
   (5, 2, 2) 0.000456621 0.999087 0.000456621;
   (1, 2, 2) 7.61905e-005 0.999848 7.61905e-005;
   (2, 2, 2) 0.333333 0.333333 0.333333;
   (0, 2, 2) 6.23403e-005 0.999875 6.23403e-005;
   (7, 2, 2) 0.333333 0.333333 0.333333;
   (8, 2, 2) 0.333333 0.333333 0.333333;
   (3, 4, 2) 3.60946e-005 0.999928 3.60946e-005;
   (4, 4, 2) 0.000195848 0.999608 0.000195848;
   (6, 4, 2) 4.72947e-005 0.999905 4.72947e-005;
   (5, 4, 2) 3.80996e-005 0.999924 3.80996e-005;
   (1, 4, 2) 5.2751e-005 0.999894 5.2751e-005;
   (2, 4, 2) 2.74326e-005 0.999945 2.74326e-005;
   (0, 4, 2) 8.57118e-005 0.999829 8.57118e-005;
   (7, 4, 2) 0.000274123 0.999452 0.000274123;
   (8, 4, 2) 0.333333 0.333333 0.333333;
   (3, 8, 2) 0.333333 0.333333 0.333333;
   (4, 8, 2) 0.333333 0.333333 0.333333;
   (6, 8, 2) 0.333333 0.333333 0.333333;
   (5, 8, 2) 0.333333 0.333333 0.333333;
   (1, 8, 2) 0.333333 0.333333 0.333333;
   (2, 8, 2) 0.333333 0.333333 0.333333;
   (0, 8, 2) 0.333333 0.333333 0.333333;
   (7, 8, 2) 0.333333 0.333333 0.333333;
   (8, 8, 2) 0.333333 0.333333 0.333333;
   (3, 3, 2) 0.333333 0.333333 0.333333;
   (4, 3, 2) 0.333333 0.333333 0.333333;
   (6, 3, 2) 0.333333 0.333333 0.333333;
   (5, 3, 2) 0.333333 0.333333 0.333333;
   (1, 3, 2) 0.333333 0.333333 0.333333;
   (2, 3, 2) 0.333333 0.333333 0.333333;
   (0, 3, 2) 0.333333 0.333333 0.333333;
   (7, 3, 2) 0.333333 0.333333 0.333333;
   (8, 3, 2) 0.333333 0.333333 0.333333;
}
probability (turn? | dir_coll_2?, move?, direction?) {
   (3, 1, 0) 0.31073 0.464377 0.224893;
   (4, 1, 0) 0.274581 0.254197 0.471222;
   (6, 1, 0) 0.393224 0.347023 0.259754;
   (5, 1, 0) 0.273312 0.295016 0.431672;
   (1, 1, 0) 0.30967 0.416434 0.273896;
   (0, 1, 0) 0.28125 0.360577 0.358173;
   (2, 1, 0) 0.257099 0.441289 0.301612;
   (7, 1, 0) 0.492805 0.293166 0.21403;
   (8, 1, 0) 0.333333 0.333333 0.333333;
   (3, 0, 0) 0.0496821 0.91997 0.0303478;
   (4, 0, 0) 0.0474319 0.925435 0.0271337;
   (6, 0, 0) 0.0360419 0.923125 0.0408336;
   (5, 0, 0) 0.0475488 0.918038 0.0344128;
   (1, 0, 0) 0.0437707 0.92948 0.0267489;
   (0, 0, 0) 0.014269 0.965687 0.0200444;
   (2, 0, 0) 0.037131 0.94616 0.0167091;
   (7, 0, 0) 0.051262 0.907889 0.0408495;
   (8, 0, 0) 0.333333 0.333333 0.333333;
   (3, -1, 0) 0.205581 0.471365 0.323054;
   (4, -1, 0) 0.143316 0.480213 0.37647;
   (6, -1, 0) 0.222409 0.498327 0.279265;
   (5, -1, 0) 0.198591 0.520563 0.280846;
   (1, -1, 0) 0.193589 0.527743 0.278669;
   (0, -1, 0) 0.151095 0.409542 0.439363;
   (2, -1, 0) 0.18253 0.585396 0.232074;
   (7, -1, 0) 0.2126 0.405511 0.381889;
   (8, -1, 0) 0.333333 0.333333 0.333333;
   (3, 1, 7) 0.348889 0.313334 0.337778;
   (4, 1, 7) 0.26748 0.419512 0.313008;
   (6, 1, 7) 0.364751 0.341762 0.293487;
   (5, 1, 7) 0.245242 0.472181 0.282577;
   (1, 1, 7) 0.297486 0.372905 0.329609;
   (0, 1, 7) 0.32353 0.271243 0.405228;
   (2, 1, 7) 0.230868 0.392857 0.376275;
   (7, 1, 7) 0.301355 0.426636 0.272009;
   (8, 1, 7) 0.333333 0.333333 0.333333;
   (3, 0, 7) 0.0411018 0.938946 0.0199526;
   (4, 0, 7) 0.0188241 0.967849 0.0133269;
   (6, 0, 7) 0.018879 0.948407 0.0327138;
   (5, 0, 7) 0.0313397 0.936684 0.031976;
   (1, 0, 7) 0.0300055 0.935074 0.0349201;
   (0, 0, 7) 0.0135497 0.968274 0.0181762;
   (2, 0, 7) 0.0517452 0.920336 0.0279185;
   (7, 0, 7) 0.0387481 0.900179 0.0610729;
   (8, 0, 7) 0.333333 0.333333 0.333333;
   (3, -1, 7) 0.201795 0.55381 0.244395;
   (4, -1, 7) 0.298686 0.517323 0.183991;
   (6, -1, 7) 0.162056 0.63768 0.200264;
   (5, -1, 7) 0.206704 0.575418 0.217878;
   (1, -1, 7) 0.164752 0.630266 0.204982;
   (0, -1, 7) 0.206733 0.538457 0.254809;
   (2, -1, 7) 0.162934 0.641545 0.195521;
   (7, -1, 7) 0.158916 0.521316 0.319768;
   (8, -1, 7) 0.333333 0.333333 0.333333;
   (3, 1, 1) 0.483984 0.202849 0.313168;
   (4, 1, 1) 0.295891 0.263014 0.441095;
   (6, 1, 1) 0.348314 0.272473 0.379213;
   (5, 1, 1) 0.38983 0.284746 0.325424;
   (1, 1, 1) 0.246952 0.414634 0.338415;
   (0, 1, 1) 0.265259 0.352113 0.382629;
   (2, 1, 1) 0.299066 0.238318 0.462616;
   (7, 1, 1) 0.473152 0.184566 0.342282;
   (8, 1, 1) 0.333333 0.333333 0.333333;
   (3, 0, 1) 0.027201 0.963198 0.00960106;
   (4, 0, 1) 0.0775872 0.886013 0.0363996;
   (6, 0, 1) 0.0242967 0.943632 0.0320712;
   (5, 0, 1) 0.0285343 0.955539 0.0159265;
   (1, 0, 1) 0.0327775 0.941248 0.0259748;
   (0, 0, 1) 0.0243774 0.939057 0.0365658;
   (2, 0, 1) 0.0170947 0.955755 0.02715;
   (7, 0, 1) 0.0643583 0.889435 0.0462066;
   (8, 0, 1) 0.333333 0.333333 0.333333;
   (3, -1, 1) 0.371211 0.310607 0.318182;
   (4, -1, 1) 0.142861 0.603682 0.253458;
   (6, -1, 1) 0.262197 0.457314 0.280489;
   (5, -1, 1) 0.135138 0.455597 0.409265;
   (1, -1, 1) 0.278147 0.430461 0.291392;
   (0, -1, 1) 0.209463 0.513508 0.277029;
   (2, -1, 1) 0.31915 0.287236 0.393614;
   (7, -1, 1) 0.0707107 0.595956 0.333333;
   (8, -1, 1) 0.333333 0.333333 0.333333;
   (3, 1, 6) 0.282968 0.326923 0.390109;
   (4, 1, 6) 0.294606 0.221993 0.483401;
   (6, 1, 6) 0.272728 0.264823 0.46245;
   (5, 1, 6) 0.22122 0.408577 0.370203;
   (1, 1, 6) 0.296179 0.350318 0.353503;
   (0, 1, 6) 0.330601 0.39071 0.278689;
   (2, 1, 6) 0.284811 0.335443 0.379746;
   (7, 1, 6) 0.271063 0.399267 0.32967;
   (8, 1, 6) 0.333333 0.333333 0.333333;
   (3, 0, 6) 0.0647354 0.919804 0.0154602;
   (4, 0, 6) 0.0298159 0.962431 0.00775274;
   (6, 0, 6) 0.0169502 0.962248 0.0208022;
   (5, 0, 6) 0.0275008 0.956248 0.0162508;
   (1, 0, 6) 0.00941281 0.972547 0.0180402;
   (0, 0, 6) 0.0161064 0.971448 0.0124461;
   (2, 0, 6) 0.0387016 0.949549 0.0117494;
   (7, 0, 6) 0.0262331 0.922097 0.0516702;
   (8, 0, 6) 0.00136612 0.997268 0.00136612;
   (3, -1, 6) 0.139246 0.443035 0.417719;
   (4, -1, 6) 0.318386 0.538113 0.143501;
   (6, -1, 6) 0.126593 0.632896 0.240511;
   (5, -1, 6) 0.218754 0.640615 0.140631;
   (1, -1, 6) 0.198634 0.602732 0.198634;
   (0, -1, 6) 0.418914 0.405401 0.175684;
   (2, -1, 6) 0.190479 0.222225 0.587296;
   (7, -1, 6) 0.0780216 0.595737 0.326241;
   (8, -1, 6) 0.333333 0.333333 0.333333;
   (3, 1, 5) 0.348017 0.211456 0.440527;
   (4, 1, 5) 0.20988 0.308643 0.481478;
   (6, 1, 5) 0.358871 0.133068 0.508062;
   (5, 1, 5) 0.311476 0.237708 0.450816;
   (1, 1, 5) 0.289063 0.386718 0.324219;
   (0, 1, 5) 0.428984 0.150727 0.420289;
   (2, 1, 5) 0.322098 0.2809 0.397003;
   (7, 1, 5) 0.441663 0.158339 0.399998;
   (8, 1, 5) 0.333333 0.333333 0.333333;
   (3, 0, 5) 0.0457693 0.947363 0.00686806;
   (4, 0, 5) 0.0139153 0.980865 0.00521974;
   (6, 0, 5) 0.0309297 0.963177 0.005893;
   (5, 0, 5) 0.0160793 0.953372 0.0305486;
   (1, 0, 5) 0.0502924 0.945837 0.00387109;
   (0, 0, 5) 0.0152049 0.966212 0.0185833;
   (2, 0, 5) 0.0205632 0.971958 0.00747914;
   (7, 0, 5) 0.0282883 0.956734 0.0149772;
   (8, 0, 5) 0.333333 0.333333 0.333333;
   (3, -1, 5) 3.04804e-005 0.733297 0.266673;
   (4, -1, 5) 3.429e-005 0.72496 0.275006;
   (6, -1, 5) 0.303034 0.363633 0.333333;
   (5, -1, 5) 0.381815 0.545439 0.0727468;
   (1, -1, 5) 0.0119205 0.404758 0.583321;
   (0, -1, 5) 0.253526 0.507032 0.239442;
   (2, -1, 5) 3.80996e-005 0.19446 0.805502;
   (7, -1, 5) 0.14288 0.42856 0.42856;
   (8, -1, 5) 0.333333 0.333333 0.333333;
   (3, 1, 2) 0.472724 0.121217 0.406059;
   (4, 1, 2) 0.360576 0.206733 0.43269;
   (6, 1, 2) 0.471859 0.125545 0.402596;
   (5, 1, 2) 0.306123 0.293878 0.399999;
   (1, 1, 2) 0.265307 0.187758 0.546935;
   (0, 1, 2) 0.422726 0.186366 0.390908;
   (2, 1, 2) 0.368627 0.274511 0.356862;
   (7, 1, 2) 0.448146 0.244446 0.307408;
   (8, 1, 2) 0.333333 0.333333 0.333333;
   (3, 0, 2) 0.0686711 0.905576 0.0257529;
   (4, 0, 2) 0.00554778 0.968572 0.0258803;
   (6, 0, 2) 0.0145888 0.982167 0.00324369;
   (5, 0, 2) 0.0190235 0.97554 0.00543662;
   (1, 0, 2) 0.0279735 0.965032 0.00699457;
   (0, 0, 2) 0.0531466 0.906722 0.0401315;
   (2, 0, 2) 0.0348271 0.942286 0.0228868;
   (7, 0, 2) 0.00400542 0.92399 0.0720043;
   (8, 0, 2) 0.333333 0.333333 0.333333;
   (3, -1, 2) 0.621606 0.108121 0.270274;
   (4, -1, 2) 4.72947e-005 0.241392 0.75856;
   (6, -1, 2) 0.0571753 0.399992 0.542832;
   (5, -1, 2) 1.61374e-005 0.470582 0.529402;
   (1, -1, 2) 0.190482 0.580943 0.228576;
   (0, -1, 2) 0.206616 0.528919 0.264465;
   (2, -1, 2) 0.209686 0.483861 0.306453;
   (7, -1, 2) 0.0392394 0.549002 0.411758;
   (8, -1, 2) 0.333333 0.333333 0.333333;
   (3, 1, 4) 0.348214 0.26786 0.383927;
   (4, 1, 4) 0.2069 0.179315 0.613785;
   (6, 1, 4) 0.317758 0.392521 0.289721;
   (5, 1, 4) 0.425639 0.28718 0.28718;
   (1, 1, 4) 0.60115 0.265898 0.132953;
   (0, 1, 4) 0.384905 0.215096 0.399999;
   (2, 1, 4) 0.366491 0.413611 0.219898;
   (7, 1, 4) 0.266671 0.0500194 0.683309;
   (8, 1, 4) 0.333333 0.333333 0.333333;
   (3, 0, 4) 0.0165606 0.983435 4.54213e-006;
   (4, 0, 4) 3.9992e-006 0.997077 0.00291942;
   (6, 0, 4) 0.0631122 0.898047 0.0388408;
   (5, 0, 4) 0.0149286 0.98258 0.00249095;
   (1, 0, 4) 0.0372405 0.962752 7.29634e-006;
   (0, 0, 4) 3.1318e-006 0.986295 0.0137016;
   (2, 0, 4) 0.0778849 0.912765 0.00934995;
   (7, 0, 4) 0.119176 0.875636 0.00518834;
   (8, 0, 4) 0.00136612 0.997268 0.00136612;
   (3, -1, 4) 2.74326e-005 0.539983 0.45999;
   (4, -1, 4) 6.23403e-005 0.863537 0.1364;
   (6, -1, 4) 0.153875 0.115419 0.730706;
   (5, -1, 4) 0.0333745 0.300005 0.666621;
   (1, -1, 4) 8.57118e-005 0.312505 0.687409;
   (0, -1, 4) 0.0606231 0.287882 0.651495;
   (2, -1, 4) 0.0303408 0.272735 0.696924;
   (7, -1, 4) 0.357139 0.250012 0.392848;
   (8, -1, 4) 0.333333 0.333333 0.333333;
   (3, 1, 8) 0.333333 0.333333 0.333333;
   (4, 1, 8) 0.997268 0.00136612 0.00136612;
   (6, 1, 8) 0.333333 0.333333 0.333333;
   (5, 1, 8) 0.333333 0.333333 0.333333;
   (1, 1, 8) 0.997268 0.00136612 0.00136612;
   (0, 1, 8) 0.333333 0.333333 0.333333;
   (2, 1, 8) 0.333333 0.333333 0.333333;
   (7, 1, 8) 0.00136612 0.997268 0.00136612;
   (8, 1, 8) 0.333333 0.333333 0.333333;
   (3, 0, 8) 0.00136612 0.997268 0.00136612;
   (4, 0, 8) 0.20011 0.799616 0.000274123;
   (6, 0, 8) 0.000342583 0.999315 0.000342583;
   (5, 0, 8) 0.052662 0.947302 3.60946e-005;
   (1, 0, 8) 0.333333 0.333333 0.333333;
   (0, 0, 8) 0.333333 0.333333 0.333333;
   (2, 0, 8) 0.333333 0.333333 0.333333;
   (7, 0, 8) 0.00136612 0.997268 0.00136612;
   (8, 0, 8) 0.333333 0.333333 0.333333;
   (3, -1, 8) 0.333333 0.333333 0.333333;
   (4, -1, 8) 0.000456621 0.999087 0.000456621;
   (6, -1, 8) 0.333333 0.333333 0.333333;
   (5, -1, 8) 0.000456621 0.66621 0.333333;
   (1, -1, 8) 0.333333 0.333333 0.333333;
   (0, -1, 8) 0.333333 0.333333 0.333333;
   (2, -1, 8) 0.998631 0.000684463 0.000684463;
   (7, -1, 8) 0.333333 0.333333 0.333333;
   (8, -1, 8) 0.333333 0.333333 0.333333;
   (3, 1, 3) 0.208864 0.107601 0.683535;
   (4, 1, 3) 0.506657 0.293336 0.200007;
   (6, 1, 3) 0.371428 0.108577 0.519996;
   (5, 1, 3) 0.439248 0.0560854 0.504666;
   (1, 1, 3) 0.218754 0.359374 0.421872;
   (0, 1, 3) 0.44185 0.1163 0.44185;
   (2, 1, 3) 0.297873 0.285107 0.41702;
   (7, 1, 3) 0.145353 0.226747 0.6279;
   (8, 1, 3) 0.333333 0.333333 0.333333;
   (3, 0, 3) 0.0645197 0.925799 0.00968172;
   (4, 0, 3) 0.00269909 0.973039 0.0242622;
   (6, 0, 3) 3.65794e-006 0.989326 0.0106702;
   (5, 0, 3) 3.42932e-006 0.994993 0.00500338;
   (1, 0, 3) 0.0668554 0.863504 0.0696409;
   (0, 0, 3) 0.00800357 0.991993 3.65794e-006;
   (2, 0, 3) 0.0330998 0.874699 0.0922009;
   (7, 0, 3) 3.61933e-006 0.970969 0.0290271;
   (8, 0, 3) 0.333333 0.333333 0.333333;
   (3, -1, 3) 0.0112508 0.775261 0.213489;
   (4, -1, 3) 0.59989 0.399973 0.000137118;
   (6, -1, 3) 7.21813e-005 7.21813e-005 0.999856;
   (5, -1, 3) 0.00017138 0.374979 0.62485;
   (1, -1, 3) 6.53083e-005 0.380943 0.618992;
   (0, -1, 3) 0.000114273 0.999771 0.000114273;
   (2, -1, 3) 4.03405e-005 0.735245 0.264714;
   (7, -1, 3) 0.333333 0.333333 0.333333;
   (8, -1, 3) 0.333333 0.333333 0.333333;
}
probability (shell? | turn?, move?) {
   (1, 1) 0.831646 0.159373 0.00898105;
   (0, 1) 0.913761 0.0793198 0.00691914;
   (-1, 1) 0.874074 0.119855 0.00607085;
   (1, 0) 0.695619 0.281856 0.0225257;
   (0, 0) 0.982759 0.0162011 0.00104016;
   (-1, 0) 0.725612 0.255602 0.0187862;
   (1, -1) 0.734723 0.243033 0.0222436;
   (0, -1) 0.861198 0.124238 0.0145646;
   (-1, -1) 0.833807 0.152295 0.0138975;
}
probability (shield? | move?) {
   (1) 0.999156 0.000844358;
   (0) 0.99985 0.000149898;
   (-1) 0.998925 0.00107509;
}

